{"learner":{"attributes":{"scikit_learn":"{\"_estimator_type\": \"classifier\"}"},"feature_names":[],"feature_types":[],"gradient_booster":{"model":{"gbtree_model_param":{"num_parallel_tree":"1","num_trees":"1500"},"iteration_indptr":[0,5,10,15,20,25,30,35,40,45,50,55,60,65,70,75,80,85,90,95,100,105,110,115,120,125,130,135,140,145,150,155,160,165,170,175,180,185,190,195,200,205,210,215,220,225,230,235,240,245,250,255,260,265,270,275,280,285,290,295,300,305,310,315,320,325,330,335,340,345,350,355,360,365,370,375,380,385,390,395,400,405,410,415,420,425,430,435,440,445,450,455,460,465,470,475,480,485,490,495,500,505,510,515,520,525,530,535,540,545,550,555,560,565,570,575,580,585,590,595,600,605,610,615,620,625,630,635,640,645,650,655,660,665,670,675,680,685,690,695,700,705,710,715,720,725,730,735,740,745,750,755,760,765,770,775,780,785,790,795,800,805,810,815,820,825,830,835,840,845,850,855,860,865,870,875,880,885,890,895,900,905,910,915,920,925,930,935,940,945,950,955,960,965,970,975,980,985,990,995,1000,1005,1010,1015,1020,1025,1030,1035,1040,1045,1050,1055,1060,1065,1070,1075,1080,1085,1090,1095,1100,1105,1110,1115,1120,1125,1130,1135,1140,1145,1150,1155,1160,1165,1170,1175,1180,1185,1190,1195,1200,1205,1210,1215,1220,1225,1230,1235,1240,1245,1250,1255,1260,1265,1270,1275,1280,1285,1290,1295,1300,1305,1310,1315,1320,1325,1330,1335,1340,1345,1350,1355,1360,1365,1370,1375,1380,1385,1390,1395,1400,1405,1410,1415,1420,1425,1430,1435,1440,1445,1450,1455,1460,1465,1470,1475,1480,1485,1490,1495,1500],"tree_info":[0,1,2,3,4,0,1,2,3,4,0,1,2,3,4,0,1,2,3,4,0,1,2,3,4,0,1,2,3,4,0,1,2,3,4,0,1,2,3,4,0,1,2,3,4,0,1,2,3,4,0,1,2,3,4,0,1,2,3,4,0,1,2,3,4,0,1,2,3,4,0,1,2,3,4,0,1,2,3,4,0,1,2,3,4,0,1,2,3,4,0,1,2,3,4,0,1,2,3,4,0,1,2,3,4,0,1,2,3,4,0,1,2,3,4,0,1,2,3,4,0,1,2,3,4,0,1,2,3,4,0,1,2,3,4,0,1,2,3,4,0,1,2,3,4,0,1,2,3,4,0,1,2,3,4,0,1,2,3,4,0,1,2,3,4,0,1,2,3,4,0,1,2,3,4,0,1,2,3,4,0,1,2,3,4,0,1,2,3,4,0,1,2,3,4,0,1,2,3,4,0,1,2,3,4,0,1,2,3,4,0,1,2,3,4,0,1,2,3,4,0,1,2,3,4,0,1,2,3,4,0,1,2,3,4,0,1,2,3,4,0,1,2,3,4,0,1,2,3,4,0,1,2,3,4,0,1,2,3,4,0,1,2,3,4,0,1,2,3,4,0,1,2,3,4,0,1,2,3,4,0,1,2,3,4,0,1,2,3,4,0,1,2,3,4,0,1,2,3,4,0,1,2,3,4,0,1,2,3,4,0,1,2,3,4,0,1,2,3,4,0,1,2,3,4,0,1,2,3,4,0,1,2,3,4,0,1,2,3,4,0,1,2,3,4,0,1,2,3,4,0,1,2,3,4,0,1,2,3,4,0,1,2,3,4,0,1,2,3,4,0,1,2,3,4,0,1,2,3,4,0,1,2,3,4,0,1,2,3,4,0,1,2,3,4,0,1,2,3,4,0,1,2,3,4,0,1,2,3,4,0,1,2,3,4,0,1,2,3,4,0,1,2,3,4,0,1,2,3,4,0,1,2,3,4,0,1,2,3,4,0,1,2,3,4,0,1,2,3,4,0,1,2,3,4,0,1,2,3,4,0,1,2,3,4,0,1,2,3,4,0,1,2,3,4,0,1,2,3,4,0,1,2,3,4,0,1,2,3,4,0,1,2,3,4,0,1,2,3,4,0,1,2,3,4,0,1,2,3,4,0,1,2,3,4,0,1,2,3,4,0,1,2,3,4,0,1,2,3,4,0,1,2,3,4,0,1,2,3,4,0,1,2,3,4,0,1,2,3,4,0,1,2,3,4,0,1,2,3,4,0,1,2,3,4,0,1,2,3,4,0,1,2,3,4,0,1,2,3,4,0,1,2,3,4,0,1,2,3,4,0,1,2,3,4,0,1,2,3,4,0,1,2,3,4,0,1,2,3,4,0,1,2,3,4,0,1,2,3,4,0,1,2,3,4,0,1,2,3,4,0,1,2,3,4,0,1,2,3,4,0,1,2,3,4,0,1,2,3,4,0,1,2,3,4,0,1,2,3,4,0,1,2,3,4,0,1,2,3,4,0,1,2,3,4,0,1,2,3,4,0,1,2,3,4,0,1,2,3,4,0,1,2,3,4,0,1,2,3,4,0,1,2,3,4,0,1,2,3,4,0,1,2,3,4,0,1,2,3,4,0,1,2,3,4,0,1,2,3,4,0,1,2,3,4,0,1,2,3,4,0,1,2,3,4,0,1,2,3,4,0,1,2,3,4,0,1,2,3,4,0,1,2,3,4,0,1,2,3,4,0,1,2,3,4,0,1,2,3,4,0,1,2,3,4,0,1,2,3,4,0,1,2,3,4,0,1,2,3,4,0,1,2,3,4,0,1,2,3,4,0,1,2,3,4,0,1,2,3,4,0,1,2,3,4,0,1,2,3,4,0,1,2,3,4,0,1,2,3,4,0,1,2,3,4,0,1,2,3,4,0,1,2,3,4,0,1,2,3,4,0,1,2,3,4,0,1,2,3,4,0,1,2,3,4,0,1,2,3,4,0,1,2,3,4,0,1,2,3,4,0,1,2,3,4,0,1,2,3,4,0,1,2,3,4,0,1,2,3,4,0,1,2,3,4,0,1,2,3,4,0,1,2,3,4,0,1,2,3,4,0,1,2,3,4,0,1,2,3,4,0,1,2,3,4,0,1,2,3,4,0,1,2,3,4,0,1,2,3,4,0,1,2,3,4,0,1,2,3,4,0,1,2,3,4,0,1,2,3,4,0,1,2,3,4,0,1,2,3,4,0,1,2,3,4,0,1,2,3,4,0,1,2,3,4,0,1,2,3,4,0,1,2,3,4,0,1,2,3,4,0,1,2,3,4,0,1,2,3,4,0,1,2,3,4,0,1,2,3,4,0,1,2,3,4,0,1,2,3,4,0,1,2,3,4,0,1,2,3,4,0,1,2,3,4,0,1,2,3,4,0,1,2,3,4,0,1,2,3,4,0,1,2,3,4,0,1,2,3,4,0,1,2,3,4,0,1,2,3,4,0,1,2,3,4,0,1,2,3,4,0,1,2,3,4,0,1,2,3,4,0,1,2,3,4,0,1,2,3,4,0,1,2,3,4,0,1,2,3,4,0,1,2,3,4,0,1,2,3,4,0,1,2,3,4,0,1,2,3,4,0,1,2,3,4,0,1,2,3,4,0,1,2,3,4,0,1,2,3,4,0,1,2,3,4,0,1,2,3,4,0,1,2,3,4,0,1,2,3,4,0,1,2,3,4,0,1,2,3,4,0,1,2,3,4,0,1,2,3,4,0,1,2,3,4,0,1,2,3,4,0,1,2,3,4,0,1,2,3,4,0,1,2,3,4,0,1,2,3,4,0,1,2,3,4,0,1,2,3,4,0,1,2,3,4,0,1,2,3,4,0,1,2,3,4,0,1,2,3,4,0,1,2,3,4,0,1,2,3,4,0,1,2,3,4,0,1,2,3,4,0,1,2,3,4,0,1,2,3,4,0,1,2,3,4,0,1,2,3,4,0,1,2,3,4,0,1,2,3,4,0,1,2,3,4,0,1,2,3,4,0,1,2,3,4,0,1,2,3,4,0,1,2,3,4,0,1,2,3,4,0,1,2,3,4,0,1,2,3,4,0,1,2,3,4,0,1,2,3,4,0,1,2,3,4,0,1,2,3,4,0,1,2,3,4,0,1,2,3,4,0,1,2,3,4,0,1,2,3,4,0,1,2,3,4,0,1,2,3,4,0,1,2,3,4,0,1,2,3,4,0,1,2,3,4,0,1,2,3,4,0,1,2,3,4,0,1,2,3,4,0,1,2,3,4,0,1,2,3,4,0,1,2,3,4,0,1,2,3,4,0,1,2,3,4,0,1,2,3,4,0,1,2,3,4,0,1,2,3,4,0,1,2,3,4,0,1,2,3,4],"trees":[{"base_weights":[-4.123057E-2,-5.573703E-1,1.6941015E0,-3.090629E-2,1.9900496E-1,2.2259696E0,-2.6397515E-2,8.219178E-2,-2.614379E-2,1.1942959E-1,-1.754386E-2],"categories":[],"categories_nodes":[],"categories_segments":[],"categories_sizes":[],"default_left":[0,0,0,0,0,0,0,0,0,0,0],"id":0,"left_children":[1,3,5,-1,7,9,-1,-1,-1,-1,-1],"loss_changes":[1.1390663E2,4.6246586E0,3.563761E1,0E0,9.245206E0,1.0778023E1,0E0,0E0,0E0,0E0,0E0],"parents":[2147483647,0,0,1,1,2,2,4,4,5,5],"right_children":[2,4,6,-1,8,10,-1,-1,-1,-1,-1],"split_conditions":[6.05E-1,9.9E-1,3.96E-1,-3.090629E-2,1E-3,2.47E-1,-2.6397515E-2,8.219178E-2,-2.614379E-2,1.1942959E-1,-1.754386E-2],"split_indices":[631,4,138,0,0,10,0,0,0,0,0],"split_type":[0,0,0,0,0,0,0,0,0,0,0],"sum_hessian":[1.2512001E2,9.696001E1,2.8160002E1,8.9920006E1,7.0400004E0,2.2720001E1,5.4400005E0,1.9200001E0,5.1200004E0,2.1440002E1,1.2800001E0],"tree_param":{"num_deleted":"0","num_feature":"751","num_nodes":"11","size_leaf_vector":"1"}},{"base_weights":[-3.1240236E-3,1.5638765E0,-4.2239684E-1,-2.751196E-2,1.1871227E-1,3.211009E-1,-3.0864198E-2,-2.9220778E-2,1.081081E-1],"categories":[],"categories_nodes":[],"categories_segments":[],"categories_sizes":[],"default_left":[0,0,0,0,0,0,0,0,0],"id":1,"left_children":[1,3,5,-1,-1,7,-1,-1,-1],"loss_changes":[8.478295E1,4.7974342E1,1.4948837E1,0E0,0E0,3.7606625E1,0E0,0E0,0E0],"parents":[2147483647,0,0,1,1,2,2,5,5],"right_children":[2,4,6,-1,-1,8,-1,-1,-1],"split_conditions":[1E-3,1.7E-1,4E-2,-2.751196E-2,1.1871227E-1,3.19E-1,-3.0864198E-2,-2.9220778E-2,1.081081E-1],"split_indices":[164,190,273,0,0,0,0,0,0],"split_type":[0,0,0,0,0,0,0,0,0],"sum_hessian":[1.2704001E2,2.6240002E1,1.0080001E2,7.3600006E0,1.8880001E1,2.0800001E1,8.000001E1,1.4400001E1,6.4000006E0],"tree_param":{"num_deleted":"0","num_feature":"751","num_nodes":"9","size_leaf_vector":"1"}},{"base_weights":[5.665722E-2,-3.0843308E-2,1.0655737E0,1.15671635E-1,-2.9876975E-2],"categories":[],"categories_nodes":[],"categories_segments":[],"categories_sizes":[],"default_left":[0,0,0,0,0],"id":2,"left_children":[1,-1,3,-1,-1],"loss_changes":[8.7011856E1,0E0,1.07722336E2,0E0,0E0],"parents":[2147483647,0,0,2,2],"right_children":[2,-1,4,-1,-1],"split_conditions":[1.99E-1,-3.0843308E-2,5.94E-1,1.15671635E-1,-2.9876975E-2],"split_indices":[11,0,144,0,0],"split_type":[0,0,0,0,0],"sum_hessian":[1.2608001E2,7.5840004E1,5.024E1,2.8480001E1,2.1760002E1],"tree_param":{"num_deleted":"0","num_feature":"751","num_nodes":"5","size_leaf_vector":"1"}},{"base_weights":[6.1862045E-3,8.290723E-1,-5.902594E-1,-3.018996E-2,1.2024353E-1,-3.0798147E-2,-2.7027026E-1,-2.614379E-2,2.6315788E-2],"categories":[],"categories_nodes":[],"categories_segments":[],"categories_sizes":[],"default_left":[0,0,0,0,0,0,0,0,0],"id":3,"left_children":[1,3,5,-1,-1,-1,7,-1,-1],"loss_changes":[6.3960506E1,1.2509556E2,4.549961E-1,0E0,0E0,0E0,1.764241E0,0E0,0E0],"parents":[2147483647,0,0,1,1,2,2,6,6],"right_children":[2,4,6,-1,-1,-1,8,-1,-1],"split_conditions":[1.5E-2,4.7E-2,4.97E-1,-3.018996E-2,1.2024353E-1,-3.0798147E-2,2.6E-2,-2.614379E-2,2.6315788E-2],"split_indices":[731,82,748,0,0,0,3,0,0],"split_type":[0,0,0,0,0,0,0,0,0],"sum_hessian":[1.2832E2,5.3760002E1,7.4560005E1,2.8480001E1,2.5280003E1,6.816E1,6.4000006E0,5.1200004E0,1.2800001E0],"tree_param":{"num_deleted":"0","num_feature":"751","num_nodes":"9","size_leaf_vector":"1"}},{"base_weights":[4.5987945E-2,9.2946357E-1,-3.082003E-2,1.1834093E-1,-3.9780518E-1,-3.0089153E-2,7.098766E-2],"categories":[],"categories_nodes":[],"categories_segments":[],"categories_sizes":[],"default_left":[0,0,0,0,0,0,0],"id":4,"left_children":[1,3,-1,-1,5,-1,-1],"loss_changes":[7.4378876E1,1.047998E2,0E0,0E0,1.1665209E1,0E0,0E0],"parents":[2147483647,0,0,1,1,4,4],"right_children":[2,4,-1,-1,6,-1,-1],"split_conditions":[2.94E-1,1.71E-1,-3.082003E-2,1.1834093E-1,3.1E-2,-3.0089153E-2,7.098766E-2],"split_indices":[112,440,0,0,224,0,0],"split_type":[0,0,0,0,0,0,0],"sum_hessian":[1.2512001E2,5.3440002E1,7.168001E1,2.5280003E1,2.8160002E1,2.5920002E1,2.2400002E0],"tree_param":{"num_deleted":"0","num_feature":"751","num_nodes":"7","size_leaf_vector":"1"}},{"base_weights":[-3.1827137E-2,-5.824913E-1,1.5633441E0,-3.067278E-2,1.7524044E-1,2.0468554E0,-2.661844E-2,-2.2153076E-2,5.7875156E-2,1.0710293E-1,4.174994E-3],"categories":[],"categories_nodes":[],"categories_segments":[],"categories_sizes":[],"default_left":[0,0,0,0,0,0,0,0,0,0,0],"id":5,"left_children":[1,3,5,-1,7,9,-1,-1,-1,-1,-1],"loss_changes":[1.1284967E2,2.347271E0,3.450199E1,0E0,3.2614143E0,4.867668E0,0E0,0E0,0E0,0E0,0E0],"parents":[2147483647,0,0,1,1,2,2,4,4,5,5],"right_children":[2,4,6,-1,8,10,-1,-1,-1,-1,-1],"split_conditions":[5.87E-1,5.36E-1,1.5E-1,-3.067278E-2,7.29E-1,4.31E-1,-2.661844E-2,-2.2153076E-2,5.7875156E-2,1.0710293E-1,4.174994E-3],"split_indices":[301,561,100,0,2,18,0,0,0,0,0],"split_type":[0,0,0,0,0,0,0,0,0,0,0],"sum_hessian":[1.2643464E2,9.446092E1,3.1973719E1,9.0935295E1,3.5256236E0,2.5998745E1,5.9749746E0,2.5005486E0,1.025075E0,2.470956E1,1.2891847E0],"tree_param":{"num_deleted":"0","num_feature":"751","num_nodes":"11","size_leaf_vector":"1"}},{"base_weights":[1.3903325E-2,1.406752E0,-4.3795973E-1,-2.7676353E-2,1.06420256E-1,2.1340775E-1,-3.0598933E-2,-2.8967446E-2,9.593158E-2],"categories":[],"categories_nodes":[],"categories_segments":[],"categories_sizes":[],"default_left":[0,0,0,0,0,0,0,0,0],"id":6,"left_children":[1,3,5,-1,-1,7,-1,-1,-1],"loss_changes":[7.995354E1,4.5194954E1,1.100565E1,0E0,0E0,2.9458305E1,0E0,0E0,0E0],"parents":[2147483647,0,0,1,1,2,2,5,5],"right_children":[2,4,6,-1,-1,8,-1,-1,-1],"split_conditions":[1E-3,1.73E-1,3.8E-2,-2.7676353E-2,1.06420256E-1,3.19E-1,-3.0598933E-2,-2.8967446E-2,9.593158E-2],"split_indices":[734,110,643,0,0,0,0,0,0],"split_type":[0,0,0,0,0,0,0,0,0],"sum_hessian":[1.2505714E2,3.0115173E1,9.494196E1,8.166066E0,2.1949106E1,1.9969206E1,7.4972755E1,1.4082512E1,5.886694E0],"tree_param":{"num_deleted":"0","num_feature":"751","num_nodes":"9","size_leaf_vector":"1"}},{"base_weights":[9.5763795E-2,-3.0594379E-2,1.058032E0,2.0198195E0,-4.5803133E-1,1.0119808E0,1.0759214E-1,-2.9538965E-2,4.8542026E-2,8.466699E-2,-2.013103E-2],"categories":[],"categories_nodes":[],"categories_segments":[],"categories_sizes":[],"default_left":[0,0,0,0,0,0,0,0,0,0,0],"id":7,"left_children":[1,-1,3,5,7,9,-1,-1,-1,-1,-1],"loss_changes":[8.8930984E1,0E0,8.156904E1,2.349533E0,4.800099E0,6.2996635E0,0E0,0E0,0E0,0E0,0E0],"parents":[2147483647,0,0,2,2,3,3,4,4,5,5],"right_children":[2,-1,4,6,8,10,-1,-1,-1,-1,-1],"split_conditions":[1.99E-1,-3.0594379E-2,5.94E-1,1E-3,4.2E-1,8.72E-1,1.0759214E-1,-2.9538965E-2,4.8542026E-2,8.466699E-2,-2.013103E-2],"split_indices":[11,0,144,80,8,1,0,0,0,0,0],"split_type":[0,0,0,0,0,0,0,0,0,0,0],"sum_hessian":[1.2864758E2,7.4341225E1,5.430636E1,3.302383E1,2.1282528E1,4.8285856E0,2.8195246E1,2.0010054E1,1.2724736E0,3.125911E0,1.7026746E0],"tree_param":{"num_deleted":"0","num_feature":"751","num_nodes":"11","size_leaf_vector":"1"}},{"base_weights":[-5.0565094E-2,6.528975E-1,-5.7217E-1,-3.0006513E-2,1.0669465E-1,-1.2606129E-1,-3.0560045E-2,-2.5876028E-2,4.7847744E-2],"categories":[],"categories_nodes":[],"categories_segments":[],"categories_sizes":[],"default_left":[0,0,0,0,0,0,0,0,0],"id":8,"left_children":[1,3,5,-1,-1,7,-1,-1,-1],"loss_changes":[4.8031807E1,1.0477194E2,1.2308617E0,0E0,0E0,3.5914385E0,0E0,0E0,0E0],"parents":[2147483647,0,0,1,1,2,2,5,5],"right_children":[2,4,6,-1,-1,8,-1,-1,-1],"split_conditions":[1.5E-2,4.8E-2,2.2E-2,-3.0006513E-2,1.0669465E-1,3.9E-2,-3.0560045E-2,-2.5876028E-2,4.7847744E-2],"split_indices":[611,22,701,0,0,243,0,0,0],"split_type":[0,0,0,0,0,0,0,0,0],"sum_hessian":[1.2888391E2,5.476857E1,7.411535E1,2.9989822E1,2.4778746E1,6.303092E0,6.7812256E1,5.013204E0,1.2898879E0],"tree_param":{"num_deleted":"0","num_feature":"751","num_nodes":"9","size_leaf_vector":"1"}},{"base_weights":[6.527517E-2,9.573714E-1,-3.0587424E-2,1.0757424E-1,-3.4521732E-1,-5.5637795E-1,6.659758E-2,9.068965E-3,-2.9726906E-2],"categories":[],"categories_nodes":[],"categories_segments":[],"categories_sizes":[],"default_left":[0,0,0,0,0,0,0,0,0],"id":9,"left_children":[1,3,-1,-1,5,7,-1,-1,-1],"loss_changes":[7.8009125E1,8.7380646E1,0E0,0E0,1.0480857E1,8.153672E-1,0E0,0E0,0E0],"parents":[2147483647,0,0,1,1,4,4,5,5],"right_children":[2,4,-1,-1,6,8,-1,-1,-1],"split_conditions":[3.5E-1,1.55E-1,-3.0587424E-2,1.0757424E-1,3.1E-2,1.93E-1,6.659758E-2,9.068965E-3,-2.9726906E-2],"split_indices":[92,550,0,0,224,10,0,0,0],"split_type":[0,0,0,0,0,0,0,0,0],"sum_hessian":[1.27190834E2,5.4699997E1,7.249084E1,2.819828E1,2.6501719E1,2.4131725E1,2.369993E0,1.0022339E0,2.3129492E1],"tree_param":{"num_deleted":"0","num_feature":"751","num_nodes":"9","size_leaf_vector":"1"}},{"base_weights":[-4.8493166E-2,-5.7821095E-1,1.3674992E0,-3.0440316E-2,2.3061298E-1,1.8533205E0,-4.2856815E-1,-2.1034038E-2,5.5345755E-2,9.70245E-2,1.6098585E-2,-2.6708324E-2,8.803475E-3],"categories":[],"categories_nodes":[],"categories_segments":[],"categories_sizes":[],"default_left":[0,0,0,0,0,0,0,0,0,0,0,0,0],"id":10,"left_children":[1,3,5,-1,7,9,11,-1,-1,-1,-1,-1,-1],"loss_changes":[9.896805E1,2.5149994E0,3.214721E1,0E0,2.8757212E0,3.1755447E0,6.343498E-1,0E0,0E0,0E0,0E0,0E0,0E0],"parents":[2147483647,0,0,1,1,2,2,4,4,5,5,6,6],"right_children":[2,4,6,-1,8,10,12,-1,-1,-1,-1,-1,-1],"split_conditions":[5.83E-1,5.35E-1,1.51E-1,-3.0440316E-2,7.96E-1,4.05E-1,6.38E-1,-2.1034038E-2,5.5345755E-2,9.70245E-2,1.6098585E-2,-2.6708324E-2,8.803475E-3],"split_indices":[481,541,120,0,12,738,14,0,0,0,0,0,0],"split_type":[0,0,0,0,0,0,0,0,0,0,0,0,0],"sum_hessian":[1.2988982E2,9.4958015E1,3.4931805E1,9.1735245E1,3.2227724E0,2.7469622E1,7.462181E0,2.146997E0,1.0757754E0,2.5737387E1,1.7322345E0,6.451922E0,1.0102594E0],"tree_param":{"num_deleted":"0","num_feature":"751","num_nodes":"13","size_leaf_vector":"1"}},{"base_weights":[-8.546188E-3,1.3862568E0,-4.715754E-1,-2.687175E-2,9.496444E-2,1.1555127E-1,-3.0394355E-2,-2.8689656E-2,8.562117E-2],"categories":[],"categories_nodes":[],"categories_segments":[],"categories_sizes":[],"default_left":[0,0,0,0,0,0,0,0,0],"id":11,"left_children":[1,3,5,-1,-1,7,-1,-1,-1],"loss_changes":[8.5871376E1,3.372689E1,8.058254E0,0E0,0E0,2.2609512E1,0E0,0E0,0E0],"parents":[2147483647,0,0,1,1,2,2,5,5],"right_children":[2,4,6,-1,-1,8,-1,-1,-1],"split_conditions":[1E-3,1.65E-1,3.8E-2,-2.687175E-2,9.496444E-2,3.19E-1,-3.0394355E-2,-2.8689656E-2,8.562117E-2],"split_indices":[174,150,323,0,0,0,0,0,0],"split_type":[0,0,0,0,0,0,0,0,0],"sum_hessian":[1.3094968E2,3.213977E1,9.8809906E1,6.7567463E0,2.5383022E1,1.8646654E1,8.0163246E1,1.3471778E1,5.174876E0],"tree_param":{"num_deleted":"0","num_feature":"751","num_nodes":"9","size_leaf_vector":"1"}},{"base_weights":[3.1657193E-2,-3.0370126E-2,9.168987E-1,1.793086E0,-4.538057E-1,8.0131096E-1,9.682729E-2,-2.9344559E-2,5.8895677E-2,7.659098E-2,-2.119649E-2],"categories":[],"categories_nodes":[],"categories_segments":[],"categories_sizes":[],"default_left":[0,0,0,0,0,0,0,0,0,0,0],"id":12,"left_children":[1,-1,3,5,7,9,-1,-1,-1,-1,-1],"loss_changes":[7.399961E1,0E0,6.665902E1,3.2356644E0,5.507349E0,5.982055E0,0E0,0E0,0E0,0E0,0E0],"parents":[2147483647,0,0,2,2,3,3,4,4,5,5],"right_children":[2,-1,4,6,8,10,-1,-1,-1,-1,-1],"split_conditions":[1.35E-1,-3.0370126E-2,5.94E-1,1E-3,2.55E-1,8.61E-1,9.682729E-2,-2.9344559E-2,5.8895677E-2,7.659098E-2,-2.119649E-2],"split_indices":[11,0,144,320,0,11,0,0,0,0,0],"split_type":[0,0,0,0,0,0,0,0,0,0,0],"sum_hessian":[1.2882112E2,7.499544E1,5.3825676E1,3.2648083E1,2.1177593E1,4.957966E0,2.7690119E1,2.017261E1,1.0049843E0,2.9493158E0,2.0086498E0],"tree_param":{"num_deleted":"0","num_feature":"751","num_nodes":"11","size_leaf_vector":"1"}},{"base_weights":[-1.7174294E-3,6.954951E-1,-5.645413E-1,-2.9695218E-2,9.6529655E-2,-5.097069E-2,-3.0304585E-2,-2.4972089E-2,5.629855E-2],"categories":[],"categories_nodes":[],"categories_segments":[],"categories_sizes":[],"default_left":[0,0,0,0,0,0,0,0,0],"id":13,"left_children":[1,3,5,-1,-1,7,-1,-1,-1],"loss_changes":[4.9702824E1,9.12477E1,1.4646225E0,0E0,0E0,3.9074514E0,0E0,0E0,0E0],"parents":[2147483647,0,0,1,1,2,2,5,5],"right_children":[2,4,6,-1,-1,8,-1,-1,-1],"split_conditions":[1.4E-2,4.8E-2,1.9E-2,-2.9695218E-2,9.6529655E-2,6.7E-2,-3.0304585E-2,-2.4972089E-2,5.629855E-2],"split_indices":[731,22,711,0,0,3,0,0,0],"split_type":[0,0,0,0,0,0,0,0,0],"sum_hessian":[1.2466056E2,5.557718E1,6.908339E1,2.7444849E1,2.8132328E1,5.337515E0,6.3745872E1,4.2816467E0,1.0558679E0],"tree_param":{"num_deleted":"0","num_feature":"751","num_nodes":"9","size_leaf_vector":"1"}},{"base_weights":[-6.4196778E-3,8.013208E-1,-3.0365035E-2,9.583082E-2,-4.477294E-1,-2.959022E-2,6.299076E-2],"categories":[],"categories_nodes":[],"categories_segments":[],"categories_sizes":[],"default_left":[0,0,0,0,0,0,0],"id":14,"left_children":[1,3,-1,-1,5,-1,-1],"loss_changes":[6.355072E1,7.86709E1,0E0,0E0,7.4271646E0,0E0,0E0],"parents":[2147483647,0,0,1,1,4,4],"right_children":[2,4,-1,-1,6,-1,-1],"split_conditions":[2.21E-1,1.79E-1,-3.0365035E-2,9.583082E-2,7.1E-2,-2.959022E-2,6.299076E-2],"split_indices":[112,440,0,0,93,0,0],"split_type":[0,0,0,0,0,0,0],"sum_hessian":[1.2893369E2,5.4857433E1,7.407624E1,2.8698053E1,2.6159382E1,2.472649E1,1.4328927E0],"tree_param":{"num_deleted":"0","num_feature":"751","num_nodes":"7","size_leaf_vector":"1"}},{"base_weights":[-5.3106025E-2,-5.723918E-1,1.2372308E0,-3.0204598E-2,1.7710777E-1,1.6426146E0,-2.6692769E-2,5.2975435E-2,-2.1507097E-2,8.7002516E-2,-1.7266817E-2],"categories":[],"categories_nodes":[],"categories_segments":[],"categories_sizes":[],"default_left":[0,0,0,0,0,0,0,0,0,0,0],"id":15,"left_children":[1,3,5,-1,7,9,-1,-1,-1,-1,-1],"loss_changes":[8.6432144E1,2.2906399E0,2.7462303E1,0E0,2.868499E0,6.4848557E0,0E0,0E0,0E0,0E0,0E0],"parents":[2147483647,0,0,1,1,2,2,4,4,5,5],"right_children":[2,4,6,-1,8,10,-1,-1,-1,-1,-1],"split_conditions":[6.02E-1,1E0,1.51E-1,-3.0204598E-2,1E-3,4.25E-1,-2.6692769E-2,5.2975435E-2,-2.1507097E-2,8.7002516E-2,-1.7266817E-2],"split_indices":[561,682,120,0,0,38,0,0,0,0,0],"split_type":[0,0,0,0,0,0,0,0,0,0,0],"sum_hessian":[1.26935974E2,9.090741E1,3.602856E1,8.740463E1,3.502781E0,2.9377E1,6.6515613E0,1.1242929E0,2.378488E0,2.8123291E1,1.2537098E0],"tree_param":{"num_deleted":"0","num_feature":"751","num_nodes":"11","size_leaf_vector":"1"}},{"base_weights":[-2.6251778E-2,1.1618162E0,-4.6137568E-1,-2.7561033E-2,8.79711E-2,1.23424254E-1,-3.0156229E-2,-2.840803E-2,7.9323344E-2],"categories":[],"categories_nodes":[],"categories_segments":[],"categories_sizes":[],"default_left":[0,0,0,0,0,0,0,0,0],"id":16,"left_children":[1,3,5,-1,-1,7,-1,-1,-1],"loss_changes":[6.7056725E1,3.657319E1,7.9410744E0,0E0,0E0,2.0474808E1,0E0,0E0,0E0],"parents":[2147483647,0,0,1,1,2,2,5,5],"right_children":[2,4,6,-1,-1,8,-1,-1,-1],"split_conditions":[1E-3,1.55E-1,4E-2,-2.7561033E-2,8.79711E-2,3.19E-1,-3.0156229E-2,-2.840803E-2,7.9323344E-2],"split_indices":[174,700,353,0,0,0,0,0,0],"split_type":[0,0,0,0,0,0,0,0,0],"sum_hessian":[1.2767746E2,3.37784E1,9.389906E1,8.756244E0,2.5022156E1,1.8344822E1,7.555424E1,1.2871895E1,5.4729276E0],"tree_param":{"num_deleted":"0","num_feature":"751","num_nodes":"9","size_leaf_vector":"1"}},{"base_weights":[2.4266543E-2,-3.0148191E-2,8.4781975E-1,1.6498687E0,-4.956036E-1,7.6514727E-1,8.846276E-2,-2.9144118E-2,3.3920307E-2,7.1794644E-2,-2.092597E-2],"categories":[],"categories_nodes":[],"categories_segments":[],"categories_sizes":[],"default_left":[0,0,0,0,0,0,0,0,0,0,0],"id":17,"left_children":[1,-1,3,5,7,9,-1,-1,-1,-1,-1],"loss_changes":[6.880236E1,0E0,6.285178E1,2.4784164E0,2.6795654E0,5.4247446E0,0E0,0E0,0E0,0E0,0E0],"parents":[2147483647,0,0,2,2,3,3,4,4,5,5],"right_children":[2,-1,4,6,8,10,-1,-1,-1,-1,-1],"split_conditions":[1.99E-1,-3.0148191E-2,6.02E-1,1E-3,3.92E-1,8.72E-1,8.846276E-2,-2.9144118E-2,3.3920307E-2,7.1794644E-2,-2.092597E-2],"split_indices":[11,0,164,90,18,1,0,0,0,0,0],"split_type":[0,0,0,0,0,0,0,0,0,0,0],"sum_hessian":[1.3120435E2,7.463164E1,5.6572712E1,3.5281116E1,2.1291597E1,5.0757756E0,3.0205341E1,2.0286928E1,1.0046687E0,3.1038408E0,1.9719348E0],"tree_param":{"num_deleted":"0","num_feature":"751","num_nodes":"11","size_leaf_vector":"1"}},{"base_weights":[1.314488E-2,7.18948E-1,-5.6010175E-1,-2.9367063E-2,8.843095E-2,-2.286723E-1,-3.005746E-2,-2.694851E-2,5.6106832E-2],"categories":[],"categories_nodes":[],"categories_segments":[],"categories_sizes":[],"default_left":[0,0,0,0,0,0,0,0,0],"id":18,"left_children":[1,3,5,-1,-1,7,-1,-1,-1],"loss_changes":[5.1077732E1,7.8608185E1,8.104286E-1,0E0,0E0,4.499699E0,0E0,0E0,0E0],"parents":[2147483647,0,0,1,1,2,2,5,5],"right_children":[2,4,6,-1,-1,8,-1,-1,-1],"split_conditions":[1.4E-2,4.7E-2,2.2E-2,-2.9367063E-2,8.843095E-2,2.78E-1,-3.005746E-2,-2.694851E-2,5.6106832E-2],"split_indices":[661,82,731,0,0,3,0,0,0],"split_type":[0,0,0,0,0,0,0,0,0],"sum_hessian":[1.242475E2,5.5571533E1,6.8675964E1,2.4955496E1,3.061604E1,8.29231E0,6.0383656E1,7.232024E0,1.0602853E0],"tree_param":{"num_deleted":"0","num_feature":"751","num_nodes":"9","size_leaf_vector":"1"}},{"base_weights":[9.016529E-2,9.420261E-1,-3.0115891E-2,1.6455922E0,-5.2902466E-1,8.902453E-2,6.1898965E-1,-2.8889453E-2,8.893137E-3,7.2842576E-2,-2.1921216E-2],"categories":[],"categories_nodes":[],"categories_segments":[],"categories_sizes":[],"default_left":[0,0,0,0,0,0,0,0,0,0,0],"id":19,"left_children":[1,3,-1,5,7,-1,9,-1,-1,-1,-1],"loss_changes":[7.536623E1,6.0119926E1,0E0,4.294548E0,7.6730156E-1,0E0,6.006613E0,0E0,0E0,0E0,0E0],"parents":[2147483647,0,0,1,1,3,3,4,4,6,6],"right_children":[2,4,-1,6,8,-1,10,-1,-1,-1,-1],"split_conditions":[2.94E-1,2.54E-1,-3.0115891E-2,1.72E-1,3.6E-2,8.902453E-2,3.75E1,-2.8889453E-2,8.893137E-3,7.2842576E-2,-2.1921216E-2],"split_indices":[112,280,0,250,14,0,5,0,0,0,0],"split_type":[0,0,0,0,0,0,0,0,0,0,0],"sum_hessian":[1.2579934E2,5.624678E1,6.955256E1,3.7968678E1,1.8278103E1,3.2909878E1,5.0587983E0,1.7269407E1,1.0086956E0,2.6116548E0,2.4471433E0],"tree_param":{"num_deleted":"0","num_feature":"751","num_nodes":"11","size_leaf_vector":"1"}},{"base_weights":[-5.6306243E-2,-5.472709E-1,1.1605178E0,-2.9976627E-2,1.6660905E-1,1.5328616E0,-4.100332E-1,-2.4453709E-2,6.211346E-2,7.9978764E-2,2.7985002E-3,-2.6059125E-2,8.743567E-3],"categories":[],"categories_nodes":[],"categories_segments":[],"categories_sizes":[],"default_left":[0,0,0,0,0,0,0,0,0,0,0,0,0],"id":20,"left_children":[1,3,5,-1,7,9,11,-1,-1,-1,-1,-1,-1],"loss_changes":[7.713565E1,3.5292282E0,2.2343678E1,0E0,5.581751E0,2.8888245E0,6.050823E-1,0E0,0E0,0E0,0E0,0E0,0E0],"parents":[2147483647,0,0,1,1,2,2,4,4,5,5,6,6],"right_children":[2,4,6,-1,8,10,12,-1,-1,-1,-1,-1,-1],"split_conditions":[6.05E-1,5.35E-1,1.47E-1,-2.9976627E-2,7.32E-1,4.08E-1,6.43E-1,-2.4453709E-2,6.211346E-2,7.9978764E-2,2.7985002E-3,-2.6059125E-2,8.743567E-3],"split_indices":[631,541,110,0,4,48,64,0,0,0,0,0,0],"split_type":[0,0,0,0,0,0,0,0,0,0,0,0,0],"sum_hessian":[1.27052025E2,9.091845E1,3.6133568E1,8.486579E1,6.0526633E0,2.9228191E1,6.905378E0,4.0992413E0,1.9534217E0,2.7885489E1,1.3427019E0,5.894241E0,1.011137E0],"tree_param":{"num_deleted":"0","num_feature":"751","num_nodes":"13","size_leaf_vector":"1"}},{"base_weights":[-5.935789E-2,7.941675E-1,-5.7324654E-1,-5.239108E-1,8.162421E-2,-9.787808E-5,-2.9915983E-2,-2.8704911E-2,8.500781E-3,-2.0509118E-2,2.9807258E-2],"categories":[],"categories_nodes":[],"categories_segments":[],"categories_sizes":[],"default_left":[0,0,0,0,0,0,0,0,0,0,0],"id":21,"left_children":[1,3,5,7,-1,9,-1,-1,-1,-1,-1],"loss_changes":[5.30703E1,5.1131508E1,1.084301E0,7.4000025E-1,0E0,1.2623634E0,0E0,0E0,0E0,0E0,0E0],"parents":[2147483647,0,0,1,1,2,2,3,3,5,5],"right_children":[2,4,6,8,-1,10,-1,-1,-1,-1,-1],"split_conditions":[3.5E-2,1.79E-1,4.1E-2,1.6E-1,8.162421E-2,-1.023E0,-2.9915983E-2,-2.8704911E-2,8.500781E-3,-2.0509118E-2,2.9807258E-2],"split_indices":[253,440,583,220,0,7,0,0,0,0,0],"split_type":[0,0,0,0,0,0,0,0,0,0,0],"sum_hessian":[1.1895669E2,4.450021E1,7.445648E1,1.7445631E1,2.7054579E1,3.1627548E0,7.1293724E1,1.6430029E1,1.0156019E0,2.0588043E0,1.1039507E0],"tree_param":{"num_deleted":"0","num_feature":"751","num_nodes":"11","size_leaf_vector":"1"}},{"base_weights":[6.916228E-2,-2.9886315E-2,8.601013E-1,1.5458148E0,-5.259811E-1,8.081911E-1,8.1466064E-2,-2.8722703E-2,5.256267E-3,6.769589E-2,-1.934177E-2],"categories":[],"categories_nodes":[],"categories_segments":[],"categories_sizes":[],"default_left":[0,0,0,0,0,0,0,0,0,0,0],"id":22,"left_children":[1,-1,3,5,7,9,-1,-1,-1,-1,-1],"loss_changes":[6.517642E1,0E0,5.450358E1,1.0267181E0,6.551719E-1,4.3411293E0,0E0,0E0,0E0,0E0,0E0],"parents":[2147483647,0,0,2,2,3,3,4,4,5,5],"right_children":[2,-1,4,6,8,10,-1,-1,-1,-1,-1],"split_conditions":[1.99E-1,-2.9886315E-2,6E-1,1E-3,3.83E-1,8.72E-1,8.1466064E-2,-2.8722703E-2,5.256267E-3,6.769589E-2,-1.934177E-2],"split_indices":[1,0,54,80,138,1,0,0,0,0,0],"split_type":[0,0,0,0,0,0,0,0,0,0,0],"sum_hessian":[1.2158998E2,6.610073E1,5.5489246E1,3.7046574E1,1.8442673E1,4.853468E0,3.2193108E1,1.721056E1,1.2321124E0,3.2406266E0,1.6128411E0],"tree_param":{"num_deleted":"0","num_feature":"751","num_nodes":"11","size_leaf_vector":"1"}},{"base_weights":[-1.64227E-2,5.930446E-1,-5.6926334E-1,-2.9321352E-2,8.1621334E-2,4.8624463E-3,-5.8314806E-1,-1.4134933E-1,-2.9872367E-2,5.1747235E-3,-1.6417569E-2],"categories":[],"categories_nodes":[],"categories_segments":[],"categories_sizes":[],"default_left":[0,0,0,0,0,0,0,0,0,0,0],"id":23,"left_children":[1,3,5,-1,-1,-1,7,9,-1,-1,-1],"loss_changes":[4.381852E1,7.6804825E1,6.8764687E-1,0E0,0E0,0E0,3.3836746E-1,1.9003229E-1,0E0,0E0,0E0],"parents":[2147483647,0,0,1,1,2,2,6,6,7,7],"right_children":[2,4,6,-1,-1,-1,8,10,-1,-1,-1],"split_conditions":[1.5E-2,4.7E-2,1.5E-2,-2.9321352E-2,8.1621334E-2,4.8624463E-3,1.9E-2,-1.05E0,-2.9872367E-2,5.1747235E-3,-1.6417569E-2],"split_indices":[451,82,301,0,0,0,731,7,0,0,0],"split_type":[0,0,0,0,0,0,0,0,0,0,0],"sum_hessian":[1.2804713E2,6.08698E1,6.717733E1,2.87175E1,3.21523E1,1.2483541E0,6.592898E1,2.40822E0,6.3520756E1,1.2362043E0,1.1720159E0],"tree_param":{"num_deleted":"0","num_feature":"751","num_nodes":"11","size_leaf_vector":"1"}},{"base_weights":[3.089164E-2,7.8948593E-1,-2.991101E-2,1.5165654E0,-5.353855E-1,5.211623E-1,8.180553E-2,-2.8908972E-2,8.671279E-3,5.999095E-2,-2.079465E-2],"categories":[],"categories_nodes":[],"categories_segments":[],"categories_sizes":[],"default_left":[0,0,0,0,0,0,0,0,0,0,0],"id":24,"left_children":[1,3,-1,5,7,9,-1,-1,-1,-1,-1],"loss_changes":[6.2571278E1,5.805138E1,0E0,3.7437592E0,7.613454E-1,4.065993E0,0E0,0E0,0E0,0E0,0E0],"parents":[2147483647,0,0,1,1,3,3,4,4,5,5],"right_children":[2,4,-1,6,8,10,-1,-1,-1,-1,-1],"split_conditions":[3.5E-1,2.49E-1,-2.991101E-2,1E-3,6.2E-2,1E-3,8.180553E-2,-2.8908972E-2,8.671279E-3,5.999095E-2,-2.079465E-2],"split_indices":[122,720,0,581,172,0,0,0,0,0,0],"split_type":[0,0,0,0,0,0,0,0,0,0,0],"sum_hessian":[1.2912093E2,5.8420963E1,7.069996E1,3.7626907E1,2.0794054E1,4.609024E0,3.3017883E1,1.9783913E1,1.0101404E0,2.510439E0,2.098585E0],"tree_param":{"num_deleted":"0","num_feature":"751","num_nodes":"11","size_leaf_vector":"1"}},{"base_weights":[-2.1923043E-2,-5.8394057E-1,1.1166183E0,-2.97551E-2,7.5647974E-4,1.4548091E0,-4.1971272E-1,7.552473E-2,2.4155441E-3,8.40053E-3,-2.6187345E-2],"categories":[],"categories_nodes":[],"categories_segments":[],"categories_sizes":[],"default_left":[0,0,0,0,0,0,0,0,0,0,0],"id":25,"left_children":[1,3,5,-1,-1,7,9,-1,-1,-1,-1],"loss_changes":[8.139741E1,5.783024E-1,2.245726E1,0E0,0E0,2.643631E0,5.9927857E-1,0E0,0E0,0E0,0E0],"parents":[2147483647,0,0,1,1,2,2,5,5,6,6],"right_children":[2,4,6,-1,-1,8,10,-1,-1,-1,-1],"split_conditions":[5.56E-1,7.857E1,1.51E-1,-2.97551E-2,7.5647974E-4,4.27E-1,-1.023E0,7.552473E-2,2.4155441E-3,8.40053E-3,-2.6187345E-2],"split_indices":[511,36,90,0,0,428,487,0,0,0,0],"split_type":[0,0,0,0,0,0,0,0,0,0,0],"sum_hessian":[1.2518828E2,8.4140945E1,4.1047333E1,8.260846E1,1.5324831E0,3.368529E1,7.362043E0,3.2331303E1,1.3539895E0,1.0147023E0,6.3473406E0],"tree_param":{"num_deleted":"0","num_feature":"751","num_nodes":"11","size_leaf_vector":"1"}},{"base_weights":[-2.3367265E-2,8.014125E-1,-5.820356E-1,-2.8544534E-2,7.434987E-2,8.126248E-3,-2.971752E-2],"categories":[],"categories_nodes":[],"categories_segments":[],"categories_sizes":[],"default_left":[0,0,0,0,0,0,0],"id":26,"left_children":[1,3,5,-1,-1,-1,-1],"loss_changes":[5.8695713E1,4.9256935E1,7.927036E-1,0E0,0E0,0E0,0E0],"parents":[2147483647,0,0,1,1,2,2],"right_children":[2,4,6,-1,-1,-1,-1],"split_conditions":[4.1E-2,1.6E-1,3.9E-2,-2.8544534E-2,7.434987E-2,8.126248E-3,-2.971752E-2],"split_indices":[253,220,583,0,0,0,0],"split_type":[0,0,0,0,0,0,0],"sum_hessian":[1.2537151E2,5.0452454E1,7.491906E1,1.6863956E1,3.35885E1,1.0205098E0,7.389855E1],"tree_param":{"num_deleted":"0","num_feature":"751","num_nodes":"7","size_leaf_vector":"1"}},{"base_weights":[2.464375E-2,-2.9683474E-2,7.738229E-1,1.3865764E0,-5.224145E-1,6.060578E-1,7.613344E-2,5.583445E-3,-2.8552243E-2,6.53122E-2,-2.2609267E-2],"categories":[],"categories_nodes":[],"categories_segments":[],"categories_sizes":[],"default_left":[0,0,0,0,0,0,0,0,0,0,0],"id":27,"left_children":[1,-1,3,5,7,9,-1,-1,-1,-1,-1],"loss_changes":[5.944009E1,0E0,4.6795868E1,3.2899323E0,6.602788E-1,6.184674E0,0E0,0E0,0E0,0E0,0E0],"parents":[2147483647,0,0,2,2,3,3,4,4,5,5],"right_children":[2,-1,4,6,8,10,-1,-1,-1,-1,-1],"split_conditions":[1.99E-1,-2.9683474E-2,6.38E-1,1E-3,7.52E-1,8.72E-1,7.613344E-2,5.583445E-3,-2.8552243E-2,6.53122E-2,-2.2609267E-2],"split_indices":[11,0,134,320,14,1,0,0,0,0,0],"split_type":[0,0,0,0,0,0,0,0,0,0,0],"sum_hessian":[1.26325584E2,6.9321045E1,5.7004536E1,3.865973E1,1.8344807E1,6.549606E0,3.2110123E1,1.2143831E0,1.7130423E1,3.8005939E0,2.7490122E0],"tree_param":{"num_deleted":"0","num_feature":"751","num_nodes":"11","size_leaf_vector":"1"}},{"base_weights":[-1.911771E-2,5.551097E-1,-5.639425E-1,-2.90933E-2,7.564896E-2,4.7085555E-3,-5.782209E-1,-2.2733507E-3,-2.9651335E-2],"categories":[],"categories_nodes":[],"categories_segments":[],"categories_sizes":[],"default_left":[0,0,0,0,0,0,0,0,0],"id":28,"left_children":[1,3,5,-1,-1,-1,7,-1,-1],"loss_changes":[4.004758E1,6.877203E1,6.7152214E-1,0E0,0E0,0E0,4.8112488E-1,0E0,0E0],"parents":[2147483647,0,0,1,1,2,2,6,6],"right_children":[2,4,6,-1,-1,-1,8,-1,-1],"split_conditions":[1.5E-2,1.54E-1,1.5E-2,-2.90933E-2,7.564896E-2,4.7085555E-3,1.9E-2,-2.2733507E-3,-2.9651335E-2],"split_indices":[451,83,301,0,0,0,731,0,0],"split_type":[0,0,0,0,0,0,0,0,0],"sum_hessian":[1.2600691E2,6.133888E1,6.466804E1,2.8226738E1,3.311214E1,1.2544229E0,6.3413612E1,1.8247569E0,6.1588856E1],"tree_param":{"num_deleted":"0","num_feature":"751","num_nodes":"9","size_leaf_vector":"1"}},{"base_weights":[5.9860844E-2,7.560924E-1,-2.9668242E-2,7.533603E-2,-3.5732052E-1,-2.8857335E-2,5.4520763E-2],"categories":[],"categories_nodes":[],"categories_segments":[],"categories_sizes":[],"default_left":[0,0,0,0,0,0,0],"id":29,"left_children":[1,3,-1,-1,5,-1,-1],"loss_changes":[5.853201E1,5.2573677E1,0E0,0E0,8.865695E0,0E0,0E0],"parents":[2147483647,0,0,1,1,4,4],"right_children":[2,4,-1,-1,6,-1,-1],"split_conditions":[3.5E-1,1.79E-1,-2.9668242E-2,7.533603E-2,3.1E-2,-2.8857335E-2,5.4520763E-2],"split_indices":[92,440,0,0,124,0,0],"split_type":[0,0,0,0,0,0,0],"sum_hessian":[1.2671293E2,6.1261127E1,6.5451805E1,3.638097E1,2.4880156E1,2.2122404E1,2.7577505E0],"tree_param":{"num_deleted":"0","num_feature":"751","num_nodes":"7","size_leaf_vector":"1"}},{"base_weights":[-7.115284E-2,-5.687048E-1,1.0563385E0,-2.9543107E-2,1.0672475E-2,1.3392291E0,-2.5558187E-2,2.940225E-2,-2.0057842E-2,7.113349E-2,-3.0111105E-3],"categories":[],"categories_nodes":[],"categories_segments":[],"categories_sizes":[],"default_left":[0,0,0,0,0,0,0,0,0,0,0],"id":30,"left_children":[1,3,5,-1,7,9,-1,-1,-1,-1,-1],"loss_changes":[6.837703E1,1.0907516E0,1.7242859E1,0E0,1.209335E0,3.8116913E0,0E0,0E0,0E0,0E0,0E0],"parents":[2147483647,0,0,1,1,2,2,4,4,5,5],"right_children":[2,4,6,-1,8,10,-1,-1,-1,-1,-1],"split_conditions":[5.83E-1,5.35E-1,1.47E-1,-2.9543107E-2,-1.046E0,4.05E-1,-2.5558187E-2,2.940225E-2,-2.0057842E-2,7.113349E-2,-3.0111105E-3],"split_indices":[481,661,230,0,7,738,0,0,0,0,0],"split_type":[0,0,0,0,0,0,0,0,0,0,0],"sum_hessian":[1.1981646E2,8.34752E1,3.6341263E1,8.0381325E1,3.0938728E0,3.0908726E1,5.432536E0,1.1099168E0,1.9839559E0,2.9153872E1,1.7548532E0],"tree_param":{"num_deleted":"0","num_feature":"751","num_nodes":"11","size_leaf_vector":"1"}},{"base_weights":[-6.21963E-3,1.0416107E0,-4.256273E-1,-2.6041174E-2,6.9389485E-2,1.3383327E-1,-2.9484658E-2,-2.7908413E-2,6.613576E-2],"categories":[],"categories_nodes":[],"categories_segments":[],"categories_sizes":[],"default_left":[0,0,0,0,0,0,0,0,0],"id":31,"left_children":[1,3,5,-1,-1,7,-1,-1,-1],"loss_changes":[5.5250805E1,2.0161636E1,8.319136E0,0E0,0E0,1.8156721E1,0E0,0E0,0E0],"parents":[2147483647,0,0,1,1,2,2,5,5],"right_children":[2,4,6,-1,-1,8,-1,-1,-1],"split_conditions":[1E-3,1.55E-1,3.8E-2,-2.6041174E-2,6.9389485E-2,3.19E-1,-2.9484658E-2,-2.7908413E-2,6.613576E-2],"split_indices":[44,700,643,0,0,0,0,0,0],"split_type":[0,0,0,0,0,0,0,0,0],"sum_hessian":[1.23713196E2,3.493916E1,8.877404E1,6.245665E0,2.8693493E1,2.0172066E1,6.8601974E1,1.3085828E1,7.086238E0],"tree_param":{"num_deleted":"0","num_feature":"751","num_nodes":"9","size_leaf_vector":"1"}},{"base_weights":[2.1326225E-2,-2.9469846E-2,7.434179E-1,1.3386968E0,-5.195142E-1,5.50917E-1,7.103481E-2,5.4989257E-3,-2.8375795E-2,5.684313E-2,-1.9779555E-2],"categories":[],"categories_nodes":[],"categories_segments":[],"categories_sizes":[],"default_left":[0,0,0,0,0,0,0,0,0,0,0],"id":32,"left_children":[1,-1,3,5,7,9,-1,-1,-1,-1,-1],"loss_changes":[5.6335495E1,0E0,4.4692524E1,1.8047256E0,6.5067816E-1,3.449892E0,0E0,0E0,0E0,0E0,0E0],"parents":[2147483647,0,0,2,2,3,3,4,4,5,5],"right_children":[2,-1,4,6,8,10,-1,-1,-1,-1,-1],"split_conditions":[1.99E-1,-2.9469846E-2,6.41E-1,4.3E-2,7.04E-1,8.72E-1,7.103481E-2,5.4989257E-3,-2.8375795E-2,5.684313E-2,-1.9779555E-2],"split_indices":[1,0,54,170,404,1,0,0,0,0,0],"split_type":[0,0,0,0,0,0,0,0,0,0,0],"sum_hessian":[1.25751854E2,6.822933E1,5.7522522E1,3.9054375E1,1.8468143E1,4.4095693E0,3.4644806E1,1.2170227E0,1.7251122E1,2.5993207E0,1.8102487E0],"tree_param":{"num_deleted":"0","num_feature":"751","num_nodes":"11","size_leaf_vector":"1"}},{"base_weights":[-2.8493937E-2,-4.5572004E-1,6.5625125E-1,4.6513338E-2,-5.025013E-1,7.086381E-2,-2.8294805E-2,-5.735928E-1,-1.5644169E-1,-2.9412467E-2,-2.1560623E-1,-2.7267352E-2,5.2939624E-2,-1.992484E-2,8.151661E-3],"categories":[],"categories_nodes":[],"categories_segments":[],"categories_sizes":[],"default_left":[0,0,0,0,0,0,0,0,0,0,0,0,0,0,0],"id":33,"left_children":[1,3,5,-1,7,-1,-1,9,11,-1,13,-1,-1,-1,-1],"loss_changes":[3.581422E1,5.35295E0,4.4565613E1,0E0,1.7194424E0,0E0,0E0,1.91288E-1,7.1502395E0,0E0,3.3942264E-1,0E0,0E0,0E0,0E0],"parents":[2147483647,0,0,1,1,2,2,4,4,7,7,8,8,10,10],"right_children":[2,4,6,-1,8,-1,-1,10,12,-1,14,-1,-1,-1,-1],"split_conditions":[9.09E-1,-1.12E0,4.1E-2,4.6513338E-2,4.56E-1,7.086381E-2,-2.8294805E-2,1E0,1.12E-1,-2.9412467E-2,6.526E1,-2.7267352E-2,5.2939624E-2,-1.992484E-2,8.151661E-3],"split_indices":[183,27,101,0,748,0,0,750,2,0,6,0,0,0,0],"split_type":[0,0,0,0,0,0,0,0,0,0,0,0,0,0,0],"sum_hessian":[1.204023E2,7.434897E1,4.6053326E1,1.8109363E0,7.253803E1,2.8282373E1,1.7770954E1,5.963055E1,1.2907482E1,5.6667286E1,2.9632652E0,1.0195809E1,2.7116733E0,1.9627655E0,1.0004997E0],"tree_param":{"num_deleted":"0","num_feature":"751","num_nodes":"15","size_leaf_vector":"1"}},{"base_weights":[5.7307683E-2,7.6333064E-1,-2.9456643E-2,1.3554668E0,-5.1896834E-1,7.135668E-2,5.235749E-1,-2.8338416E-2,8.463591E-3,-1.8935671E-2,5.709612E-2],"categories":[],"categories_nodes":[],"categories_segments":[],"categories_sizes":[],"default_left":[0,0,0,0,0,0,0,0,0,0,0],"id":34,"left_children":[1,3,-1,5,7,-1,9,-1,-1,-1,-1],"loss_changes":[5.5840153E1,4.5079693E1,0E0,1.6529388E0,7.271042E-1,0E0,3.0952187E0,0E0,0E0,0E0,0E0],"parents":[2147483647,0,0,1,1,3,3,4,4,6,6],"right_children":[2,4,-1,6,8,-1,10,-1,-1,-1,-1],"split_conditions":[3.5E-1,2.55E-1,-2.9456643E-2,1.79E-1,5E-2,7.135668E-2,1.5E-2,-2.8338416E-2,8.463591E-3,-1.8935671E-2,5.709612E-2],"split_indices":[122,280,0,440,203,0,1,0,0,0,0],"split_type":[0,0,0,0,0,0,0,0,0,0,0],"sum_hessian":[1.2036334E2,5.7443954E1,6.2919388E1,3.925831E1,1.8185646E1,3.5485725E1,3.7725842E0,1.7169668E1,1.015978E0,1.6916623E0,2.080922E0],"tree_param":{"num_deleted":"0","num_feature":"751","num_nodes":"11","size_leaf_vector":"1"}},{"base_weights":[-4.8507456E-2,-5.531734E-1,1.0307187E0,-2.9340714E-2,6.289098E-2,1.2607477E0,-2.5011158E-2,4.584663E-2,-2.2216167E-2,6.688505E-2,-1.721355E-2],"categories":[],"categories_nodes":[],"categories_segments":[],"categories_sizes":[],"default_left":[0,0,0,0,0,0,0,0,0,0,0],"id":35,"left_children":[1,3,5,-1,7,9,-1,-1,-1,-1,-1],"loss_changes":[6.673105E1,1.7657909E0,1.4383915E1,0E0,2.669752E0,4.6891365E0,0E0,0E0,0E0,0E0,0E0],"parents":[2147483647,0,0,1,1,2,2,4,4,5,5],"right_children":[2,4,6,-1,8,10,-1,-1,-1,-1,-1],"split_conditions":[6.05E-1,1E0,3.96E-1,-2.9340714E-2,1E-3,2.47E-1,-2.5011158E-2,4.584663E-2,-2.2216167E-2,6.688505E-2,-1.721355E-2],"split_indices":[631,682,138,0,0,10,0,0,0,0,0],"split_type":[0,0,0,0,0,0,0,0,0,0,0],"sum_hessian":[1.2047443E2,8.242051E1,3.805391E1,7.819791E1,4.2226014E0,3.3236507E1,4.8174043E0,1.2723879E0,2.9502134E0,3.1874807E1,1.3616996E0],"tree_param":{"num_deleted":"0","num_feature":"751","num_nodes":"11","size_leaf_vector":"1"}},{"base_weights":[-3.639071E-2,7.289853E-1,-5.359428E-1,-5.0450945E-1,6.659279E-2,-3.449176E-2,-2.9278232E-2,-2.7960462E-2,8.503516E-3,-2.4803206E-2,4.7751408E-2],"categories":[],"categories_nodes":[],"categories_segments":[],"categories_sizes":[],"default_left":[0,0,0,0,0,0,0,0,0,0,0],"id":36,"left_children":[1,3,5,7,-1,9,-1,-1,-1,-1,-1],"loss_changes":[4.6393543E1,3.6322037E1,1.8056507E0,7.0260954E-1,0E0,3.9768791E0,0E0,0E0,0E0,0E0,0E0],"parents":[2147483647,0,0,1,1,2,2,3,3,5,5],"right_children":[2,4,6,8,-1,10,-1,-1,-1,-1,-1],"split_conditions":[1.9E-2,1.79E-1,4.1E-2,4E-2,6.659279E-2,2.51E-1,-2.9278232E-2,-2.7960462E-2,8.503516E-3,-2.4803206E-2,4.7751408E-2],"split_indices":[104,440,253,191,0,10,0,0,0,0,0],"split_type":[0,0,0,0,0,0,0,0,0,0,0],"sum_hessian":[1.1931759E2,4.694015E1,7.237744E1,1.5463804E1,3.1476347E1,6.6699257E0,6.570751E1,1.4462135E1,1.0016685E0,4.888373E0,1.7815528E0],"tree_param":{"num_deleted":"0","num_feature":"751","num_nodes":"11","size_leaf_vector":"1"}},{"base_weights":[3.7144553E-2,-2.924191E-2,7.073935E-1,1.2658707E0,-4.7161862E-1,7.1473294E-1,6.617663E-2,-2.8275227E-2,3.1731453E-2,5.7777952E-2,-1.853224E-2],"categories":[],"categories_nodes":[],"categories_segments":[],"categories_sizes":[],"default_left":[0,0,0,0,0,0,0,0,0,0,0],"id":37,"left_children":[1,-1,3,5,7,9,-1,-1,-1,-1,-1],"loss_changes":[5.2547184E1,0E0,4.0528645E1,3.7043762E-1,2.4591107E0,3.345665E0,0E0,0E0,0E0,0E0,0E0],"parents":[2147483647,0,0,2,2,3,3,4,4,5,5],"right_children":[2,-1,4,6,8,10,-1,-1,-1,-1,-1],"split_conditions":[9.7E-2,-2.924191E-2,5.97E-1,1E-3,1.61E-1,8.72E-1,6.617663E-2,-2.8275227E-2,3.1731453E-2,5.7777952E-2,-1.853224E-2],"split_indices":[1,0,64,80,20,1,0,0,0,0,0],"split_type":[0,0,0,0,0,0,0,0,0,0,0],"sum_hessian":[1.2405533E2,6.441056E1,5.964477E1,4.0423298E1,1.9221474E1,5.097366E0,3.532593E1,1.8168354E1,1.0531187E0,3.5790672E0,1.5182986E0],"tree_param":{"num_deleted":"0","num_feature":"751","num_nodes":"11","size_leaf_vector":"1"}},{"base_weights":[-1.4076282E-3,-4.6874452E-1,6.0983E-1,3.996245E-2,-5.0612295E-1,6.668498E-2,-2.8320828E-2,-2.9200701E-2,-1.2515125E-1,-2.6805175E-2,5.0360203E-2],"categories":[],"categories_nodes":[],"categories_segments":[],"categories_sizes":[],"default_left":[0,0,0,0,0,0,0,0,0,0,0],"id":38,"left_children":[1,3,5,-1,7,-1,-1,-1,9,-1,-1],"loss_changes":[3.52208E1,3.7161818E0,4.6244373E1,0E0,1.9591331E0,0E0,0E0,0E0,6.541894E0,0E0,0E0],"parents":[2147483647,0,0,1,1,2,2,4,4,8,8],"right_children":[2,4,6,-1,8,-1,-1,-1,10,-1,-1],"split_conditions":[8.87E-1,-3.11E0,3.4E-2,3.996245E-2,4.53E-1,6.668498E-2,-2.8320828E-2,-2.9200701E-2,1.12E-1,-2.6805175E-2,5.0360203E-2],"split_indices":[143,5,81,0,748,0,0,0,2,0,0],"split_type":[0,0,0,0,0,0,0,0,0,0,0],"sum_hessian":[1.2129816E2,6.887284E1,5.242532E1,1.3884833E0,6.748436E1,3.2370464E1,2.0054853E1,5.558653E1,1.1897832E1,9.116021E0,2.7818103E0],"tree_param":{"num_deleted":"0","num_feature":"751","num_nodes":"11","size_leaf_vector":"1"}},{"base_weights":[5.6443922E-2,6.95939E-1,-2.922987E-2,1.317595E0,-3.6461148E-1,6.684195E-2,2.2000076E-2,-2.838076E-2,5.435546E-2],"categories":[],"categories_nodes":[],"categories_segments":[],"categories_sizes":[],"default_left":[0,0,0,0,0,0,0,0,0],"id":39,"left_children":[1,3,-1,5,7,-1,-1,-1,-1],"loss_changes":[4.9032986E1,3.9930527E1,0E0,5.253601E-2,7.364541E0,0E0,0E0,0E0,0E0],"parents":[2147483647,0,0,1,1,3,3,4,4],"right_children":[2,4,-1,6,8,-1,-1,-1,-1],"split_conditions":[2.94E-1,1.79E-1,-2.922987E-2,7.6E-2,3.1E-2,6.684195E-2,2.2000076E-2,-2.838076E-2,5.435546E-2],"split_indices":[112,440,0,191,224,0,0,0,0],"split_type":[0,0,0,0,0,0,0,0,0],"sum_hessian":[1.1761689E2,5.8836586E1,5.8780304E1,3.694084E1,2.1895742E1,3.563611E1,1.3047367E0,1.9743837E1,2.151906E0],"tree_param":{"num_deleted":"0","num_feature":"751","num_nodes":"9","size_leaf_vector":"1"}},{"base_weights":[-2.9851547E-2,-5.26093E-1,9.7950685E-1,-2.9128512E-2,1.4757352E-1,1.1860113E0,-2.4639234E-2,-2.3592366E-2,5.291248E-2,1.2410488E0,-1.5333078E-2,2.0194149E-2,6.315399E-2],"categories":[],"categories_nodes":[],"categories_segments":[],"categories_sizes":[],"default_left":[0,0,0,0,0,0,0,0,0,0,0,0,0],"id":40,"left_children":[1,3,5,-1,7,9,-1,-1,-1,11,-1,-1,-1],"loss_changes":[6.1111923E1,3.196497E0,1.2813869E1,0E0,4.5166364E0,3.302719E0,0E0,0E0,0E0,1.2621307E-1,0E0,0E0,0E0],"parents":[2147483647,0,0,1,1,2,2,4,4,5,5,9,9],"right_children":[2,4,6,-1,8,10,-1,-1,-1,12,-1,-1,-1],"split_conditions":[6.07E-1,9.76E-1,4.08E-1,-2.9128512E-2,2.1E-2,2.47E-1,-2.4639234E-2,-2.3592366E-2,5.291248E-2,4.06E-1,-1.5333078E-2,2.0194149E-2,6.315399E-2],"split_indices":[541,4,48,0,1,10,0,0,0,114,0,0,0],"split_type":[0,0,0,0,0,0,0,0,0,0,0,0,0],"sum_hessian":[1.1997898E2,8.0755226E1,3.9223755E1,7.463351E1,6.1217217E0,3.4569466E1,4.6542897E0,3.9302964E0,2.1914253E0,3.3502735E1,1.0667309E0,1.3547668E0,3.214797E1],"tree_param":{"num_deleted":"0","num_feature":"751","num_nodes":"13","size_leaf_vector":"1"}},{"base_weights":[-2.0885058E-2,9.324456E-1,-4.3915617E-1,-2.555201E-2,6.2505476E-2,5.4308E-2,-2.9059887E-2,-2.7406026E-2,5.7262808E-2],"categories":[],"categories_nodes":[],"categories_segments":[],"categories_sizes":[],"default_left":[0,0,0,0,0,0,0,0,0],"id":41,"left_children":[1,3,5,-1,-1,7,-1,-1,-1],"loss_changes":[4.649866E1,1.694814E1,5.7101965E0,0E0,0E0,1.3129647E1,0E0,0E0,0E0],"parents":[2147483647,0,0,1,1,2,2,5,5],"right_children":[2,4,6,-1,-1,8,-1,-1,-1],"split_conditions":[1E-3,1.7E-1,4E-2,-2.555201E-2,6.2505476E-2,4.46E-1,-2.9059887E-2,-2.7406026E-2,5.7262808E-2],"split_indices":[734,190,353,0,0,20,0,0,0],"split_type":[0,0,0,0,0,0,0,0,0],"sum_hessian":[1.1458392E2,3.4567593E1,8.0016335E1,6.1252604E0,2.8442333E1,1.802246E1,6.199387E1,1.1931426E1,6.0910354E0],"tree_param":{"num_deleted":"0","num_feature":"751","num_nodes":"9","size_leaf_vector":"1"}},{"base_weights":[3.0803347E-2,-2.9059708E-2,6.894402E-1,1.1810989E0,-4.1328245E-1,5.698754E-1,6.243798E-2,-2.8033003E-2,4.824468E-2,5.3550612E-2,-1.9583222E-2],"categories":[],"categories_nodes":[],"categories_segments":[],"categories_sizes":[],"default_left":[0,0,0,0,0,0,0,0,0,0,0],"id":42,"left_children":[1,-1,3,5,7,9,-1,-1,-1,-1,-1],"loss_changes":[5.0111423E1,0E0,3.294039E1,1.0111694E0,4.440504E0,3.306448E0,0E0,0E0,0E0,0E0,0E0],"parents":[2147483647,0,0,2,2,3,3,4,4,5,5],"right_children":[2,-1,4,6,8,10,-1,-1,-1,-1,-1],"split_conditions":[1.99E-1,-2.9059708E-2,5.94E-1,1E-3,2.55E-1,6.81E-1,6.243798E-2,-2.8033003E-2,4.824468E-2,5.3550612E-2,-1.9583222E-2],"split_indices":[21,0,144,80,0,1,0,0,0,0,0],"split_type":[0,0,0,0,0,0,0,0,0,0,0],"sum_hessian":[1.2232593E2,6.3468937E1,5.8856995E1,4.065813E1,1.8198866E1,4.9912663E0,3.5666862E1,1.6976627E1,1.2222381E0,3.2063332E0,1.7849332E0],"tree_param":{"num_deleted":"0","num_feature":"751","num_nodes":"11","size_leaf_vector":"1"}},{"base_weights":[-4.3992777E-3,4.8990297E-1,-5.4756856E-1,-2.8424028E-2,6.2778845E-2,-2.900028E-2,-1.4014281E-1,2.9858265E-2,-2.2909002E-2],"categories":[],"categories_nodes":[],"categories_segments":[],"categories_sizes":[],"default_left":[0,0,0,0,0,0,0,0,0],"id":43,"left_children":[1,3,5,-1,-1,-1,7,-1,-1],"loss_changes":[3.2054867E1,5.1371384E1,6.7041206E-1,0E0,0E0,0E0,1.566379E0,0E0,0E0],"parents":[2147483647,0,0,1,1,2,2,6,6],"right_children":[2,4,6,-1,-1,-1,8,-1,-1],"split_conditions":[1.5E-2,4.7E-2,4.85E-1,-2.8424028E-2,6.2778845E-2,-2.900028E-2,5.82E-1,2.9858265E-2,-2.2909002E-2],"split_indices":[451,82,28,0,0,0,8,0,0],"split_type":[0,0,0,0,0,0,0,0,0],"sum_hessian":[1.1739039E2,6.15112E1,5.587919E1,2.5928303E1,3.5582897E1,5.136611E1,4.513079E0,1.0955648E0,3.4175146E0],"tree_param":{"num_deleted":"0","num_feature":"751","num_nodes":"9","size_leaf_vector":"1"}},{"base_weights":[5.8465514E-2,7.1300703E-1,-2.9050266E-2,1.2038467E0,-5.0775224E-1,3.3805114E-1,6.355856E-2,4.4507426E-3,-2.7844135E-2,4.235646E-2,-1.817039E-2],"categories":[],"categories_nodes":[],"categories_segments":[],"categories_sizes":[],"default_left":[0,0,0,0,0,0,0,0,0,0,0],"id":44,"left_children":[1,3,-1,5,7,9,-1,-1,-1,-1,-1],"loss_changes":[5.1016804E1,3.667892E1,0E0,2.0900192E0,5.762987E-1,1.9080744E0,0E0,0E0,0E0,0E0,0E0],"parents":[2147483647,0,0,1,1,3,3,4,4,5,5],"right_children":[2,4,-1,6,8,10,-1,-1,-1,-1,-1],"split_conditions":[2.94E-1,2.49E-1,-2.9050266E-2,1E-3,2.64E-1,6.18E1,6.355856E-2,4.4507426E-3,-2.7844135E-2,4.235646E-2,-1.817039E-2],"split_indices":[112,720,0,91,10,6,0,0,0,0,0],"split_type":[0,0,0,0,0,0,0,0,0,0,0],"sum_hessian":[1.19896675E2,5.919332E1,6.070335E1,4.222818E1,1.6965141E1,3.4811893E0,3.874699E1,1.2287098E0,1.5736431E1,1.8968779E0,1.5843112E0],"tree_param":{"num_deleted":"0","num_feature":"751","num_nodes":"11","size_leaf_vector":"1"}},{"base_weights":[-2.7833855E-2,-2.8933201E-2,8.7544364E-1,1.123161E0,-2.5705433E-2,2.6804885E-1,6.032596E-2,4.144126E-2,-2.0288108E-2],"categories":[],"categories_nodes":[],"categories_segments":[],"categories_sizes":[],"default_left":[0,0,0,0,0,0,0,0,0],"id":45,"left_children":[1,-1,3,5,-1,7,-1,-1,-1],"loss_changes":[5.962419E1,0E0,1.6207222E1,2.4459114E0,0E0,2.126025E0,0E0,0E0,0E0],"parents":[2147483647,0,0,2,2,3,3,5,5],"right_children":[2,-1,4,6,-1,8,-1,-1,-1],"split_conditions":[5.35E-1,-2.8933201E-2,1.47E-1,4.74E-1,-2.5705433E-2,6.16E-1,6.032596E-2,4.144126E-2,-2.0288108E-2],"split_indices":[661,0,150,154,0,3,0,0,0],"split_type":[0,0,0,0,0,0,0,0,0],"sum_hessian":[1.1781681E2,7.340989E1,4.4406918E1,3.78509E1,6.5560207E0,3.736495E0,3.4114403E1,1.9137383E0,1.8227568E0],"tree_param":{"num_deleted":"0","num_feature":"751","num_nodes":"9","size_leaf_vector":"1"}},{"base_weights":[-4.0251017E-2,8.208692E-1,-4.479919E-1,-2.6242599E-2,5.9175756E-2,-2.8904041E-2,1.0755843E-2,5.4749597E-2,-2.7132804E-2],"categories":[],"categories_nodes":[],"categories_segments":[],"categories_sizes":[],"default_left":[0,0,0,0,0,0,0,0,0],"id":46,"left_children":[1,3,5,-1,-1,-1,7,-1,-1],"loss_changes":[4.1821743E1,1.9308586E1,4.8265266E0,0E0,0E0,0E0,1.1890533E1,0E0,0E0],"parents":[2147483647,0,0,1,1,2,2,6,6],"right_children":[2,4,6,-1,-1,-1,8,-1,-1],"split_conditions":[1E-3,1.68E-1,6.75E-1,-2.6242599E-2,5.9175756E-2,-2.8904041E-2,8.1E-2,5.4749597E-2,-2.7132804E-2],"split_indices":[734,230,200,0,0,0,82,0,0],"split_type":[0,0,0,0,0,0,0,0,0],"sum_hessian":[1.1706424E2,3.72923E1,7.977194E1,7.8213243E0,2.9470976E1,6.194564E1,1.7826302E1,5.6933527E0,1.213295E1],"tree_param":{"num_deleted":"0","num_feature":"751","num_nodes":"9","size_leaf_vector":"1"}},{"base_weights":[1.7770959E-2,-2.8854102E-2,6.205619E-1,1.1187505E0,-4.246504E-1,4.1291475E-1,5.9146922E-2,-2.797401E-2,4.636699E-2,4.7567483E-2,-1.9337714E-2],"categories":[],"categories_nodes":[],"categories_segments":[],"categories_sizes":[],"default_left":[0,0,0,0,0,0,0,0,0,0,0],"id":47,"left_children":[1,-1,3,5,7,9,-1,-1,-1,-1,-1],"loss_changes":[4.4878902E1,0E0,3.283793E1,1.4309273E0,4.3079433E0,2.5499337E0,0E0,0E0,0E0,0E0,0E0],"parents":[2147483647,0,0,2,2,3,3,4,4,5,5],"right_children":[2,-1,4,6,8,10,-1,-1,-1,-1,-1],"split_conditions":[1.99E-1,-2.8854102E-2,5.86E-1,1E-3,4.31E-1,8.72E-1,5.9146922E-2,-2.797401E-2,4.636699E-2,4.7567483E-2,-1.9337714E-2],"split_indices":[1,0,64,80,8,1,0,0,0,0,0],"split_type":[0,0,0,0,0,0,0,0,0,0,0],"sum_hessian":[1.2316136E2,6.2010303E1,6.1151062E1,4.1364697E1,1.9786366E1,4.0676937E0,3.7297E1,1.8525097E1,1.2612698E0,2.317554E0,1.7501396E0],"tree_param":{"num_deleted":"0","num_feature":"751","num_nodes":"11","size_leaf_vector":"1"}},{"base_weights":[-3.1230155E-2,4.8061284E-1,-5.4648024E-1,-2.8171783E-2,5.9432473E-2,-9.022709E-2,-2.8833164E-2,-2.1900155E-2,2.9800847E-2],"categories":[],"categories_nodes":[],"categories_segments":[],"categories_sizes":[],"default_left":[0,0,0,0,0,0,0,0,0],"id":48,"left_children":[1,3,5,-1,-1,7,-1,-1,-1],"loss_changes":[3.213423E1,4.587908E1,7.837753E-1,0E0,0E0,1.4427614E0,0E0,0E0,0E0],"parents":[2147483647,0,0,1,1,2,2,5,5],"right_children":[2,4,6,-1,-1,8,-1,-1,-1],"split_conditions":[1.5E-2,1.54E-1,2.2E-2,-2.8171783E-2,5.9432473E-2,2.5E-2,-2.8833164E-2,-2.1900155E-2,2.9800847E-2],"split_indices":[451,83,701,0,0,51,0,0,0],"split_type":[0,0,0,0,0,0,0,0,0],"sum_hessian":[1.1985061E2,6.0157814E1,5.96928E1,2.4392954E1,3.576486E1,3.9514291E0,5.5741367E1,2.862503E0,1.088926E0],"tree_param":{"num_deleted":"0","num_feature":"751","num_nodes":"9","size_leaf_vector":"1"}},{"base_weights":[6.9277525E-2,6.7174304E-1,-2.88654E-2,1.084749E0,-2.7742997E-2,2.1086769E-1,1.1840706E0,-2.178555E-2,4.383352E-2,5.9981227E-2,1.990217E-2],"categories":[],"categories_nodes":[],"categories_segments":[],"categories_sizes":[],"default_left":[0,0,0,0,0,0,0,0,0,0,0],"id":49,"left_children":[1,3,-1,5,-1,7,9,-1,-1,-1,-1],"loss_changes":[4.9196964E1,3.3694656E1,0E0,4.0213127E0,0E0,3.0676725E0,6.0058594E-2,0E0,0E0,0E0,0E0],"parents":[2147483647,0,0,1,1,3,3,5,5,6,6],"right_children":[2,4,-1,6,-1,8,10,-1,-1,-1,-1],"split_conditions":[2.94E-1,2.77E-1,-2.88654E-2,1E-3,-2.7742997E-2,1E-3,7.9E-2,-2.178555E-2,4.383352E-2,5.9981227E-2,1.990217E-2],"split_indices":[112,690,0,71,0,3,201,0,0,0,0],"split_type":[0,0,0,0,0,0,0,0,0,0,0],"sum_hessian":[1.24297745E2,6.4324005E1,5.997374E1,4.8207756E1,1.6116247E1,5.2386427E0,4.2969116E1,2.8330138E0,2.4056292E0,4.1619358E1,1.3497549E0],"tree_param":{"num_deleted":"0","num_feature":"751","num_nodes":"11","size_leaf_vector":"1"}},{"base_weights":[-2.8567675E-3,-5.625091E-1,8.923246E-1,-2.8736303E-2,3.7012566E-3,1.0861979E0,-3.6583918E-1,5.7044573E-2,5.942282E-3,-2.4226535E-2,7.78703E-3],"categories":[],"categories_nodes":[],"categories_segments":[],"categories_sizes":[],"default_left":[0,0,0,0,0,0,0,0,0,0,0],"id":50,"left_children":[1,3,5,-1,-1,7,9,-1,-1,-1,-1],"loss_changes":[5.882375E1,6.043472E-1,1.1415184E1,0E0,0E0,1.9484596E0,4.9512464E-1,0E0,0E0,0E0,0E0],"parents":[2147483647,0,0,1,1,2,2,5,5,6,6],"right_children":[2,4,6,-1,-1,8,10,-1,-1,-1,-1],"split_conditions":[5.83E-1,5.57E-1,1.51E-1,-2.8736303E-2,3.7012566E-3,4.12E-1,5.65E-1,5.7044573E-2,5.942282E-3,-2.4226535E-2,7.78703E-3],"split_indices":[491,651,120,0,0,748,4,0,0,0,0],"split_type":[0,0,0,0,0,0,0,0,0,0,0],"sum_hessian":[1.15413025E2,7.124406E1,4.4168964E1,6.99977E1,1.2463534E0,3.8390038E1,5.7789264E0,3.6165844E1,2.2241926E0,4.7655115E0,1.0134149E0],"tree_param":{"num_deleted":"0","num_feature":"751","num_nodes":"11","size_leaf_vector":"1"}},{"base_weights":[-9.062838E-3,6.98648E-1,-5.369288E-1,-4.8356155E-1,5.6782972E-2,6.9938907E-3,-5.6151396E-1,-2.715573E-2,7.6176682E-3,-2.569888E-1,-2.871862E-2,-2.0807782E-2,7.072856E-3],"categories":[],"categories_nodes":[],"categories_segments":[],"categories_sizes":[],"default_left":[0,0,0,0,0,0,0,0,0,0,0,0,0],"id":51,"left_children":[1,3,5,7,-1,-1,9,-1,-1,11,-1,-1,-1],"loss_changes":[4.4825207E1,2.7036058E1,1.2219639E0,6.333089E-1,0E0,0E0,1.1282158E-1,0E0,0E0,3.4452355E-1,0E0,0E0,0E0],"parents":[2147483647,0,0,1,1,2,2,3,3,6,6,9,9],"right_children":[2,4,6,8,-1,-1,10,-1,-1,12,-1,-1,-1],"split_conditions":[1.9E-2,1.71E-1,2.5E-2,1.71E-1,5.6782972E-2,6.9938907E-3,3.4E-2,-2.715573E-2,7.6176682E-3,2.6E-2,-2.871862E-2,-2.0807782E-2,7.072856E-3],"split_indices":[104,440,364,230,0,0,413,0,0,370,0,0,0],"split_type":[0,0,0,0,0,0,0,0,0,0,0,0,0],"sum_hessian":[1.17985245E2,5.0267704E1,6.771754E1,1.3537998E1,3.6729706E1,2.209257E0,6.550828E1,1.2512173E1,1.0258257E0,3.5042279E0,6.200405E1,2.4722095E0,1.0320184E0],"tree_param":{"num_deleted":"0","num_feature":"751","num_nodes":"13","size_leaf_vector":"1"}},{"base_weights":[2.4335347E-2,-2.8633708E-2,5.99842E-1,1.0445298E0,-2.7638182E-2,3.9816573E-1,5.668763E-2,4.796204E-2,-2.126859E-2],"categories":[],"categories_nodes":[],"categories_segments":[],"categories_sizes":[],"default_left":[0,0,0,0,0,0,0,0,0],"id":52,"left_children":[1,-1,3,5,-1,7,-1,-1,-1],"loss_changes":[4.040476E1,0E0,3.1256947E1,2.059475E0,0E0,3.5603905E0,0E0,0E0,0E0],"parents":[2147483647,0,0,2,2,3,3,5,5],"right_children":[2,-1,4,6,-1,8,-1,-1,-1],"split_conditions":[1.99E-1,-2.8633708E-2,6.41E-1,1E-3,-2.7638182E-2,6.81E-1,5.668763E-2,4.796204E-2,-2.126859E-2],"split_indices":[1,0,54,0,0,1,0,0,0],"split_type":[0,0,0,0,0,0,0,0,0],"sum_hessian":[1.1559845E2,5.6741657E1,5.885679E1,4.2538677E1,1.6318115E1,5.8223033E0,3.6716373E1,3.3649714E0,2.4573317E0],"tree_param":{"num_deleted":"0","num_feature":"751","num_nodes":"9","size_leaf_vector":"1"}},{"base_weights":[-1.1105432E-2,4.9066812E-1,-5.5776554E-1,-2.7973205E-2,5.6549337E-2,-2.781873E-1,-2.8649433E-2,-2.162764E-2,6.076762E-3],"categories":[],"categories_nodes":[],"categories_segments":[],"categories_sizes":[],"default_left":[0,0,0,0,0,0,0,0,0],"id":53,"left_children":[1,3,5,-1,-1,7,-1,-1,-1],"loss_changes":[3.3358707E1,4.3279034E1,8.8279724E-2,0E0,0E0,3.5792252E-1,0E0,0E0,0E0],"parents":[2147483647,0,0,1,1,2,2,5,5],"right_children":[2,4,6,-1,-1,8,-1,-1,-1],"split_conditions":[1.5E-2,4.5E-2,2.1E-2,-2.7973205E-2,5.6549337E-2,3.9E-2,-2.8649433E-2,-2.162764E-2,6.076762E-3],"split_indices":[451,82,741,0,0,2,0,0,0],"split_type":[0,0,0,0,0,0,0,0,0],"sum_hessian":[1.1961641E2,6.2422173E1,5.7194233E1,2.3692457E1,3.8729717E1,3.9487116E0,5.324552E1,2.789374E0,1.1593375E0],"tree_param":{"num_deleted":"0","num_feature":"751","num_nodes":"9","size_leaf_vector":"1"}},{"base_weights":[9.045176E-3,5.659827E-1,-2.8663445E-2,1.0148149E0,-2.7661128E-2,2.0008894E-2,1.1202192E0,3.4948613E-2,-2.1522854E-2,5.684144E-2,1.885241E-2],"categories":[],"categories_nodes":[],"categories_segments":[],"categories_sizes":[],"default_left":[0,0,0,0,0,0,0,0,0,0,0],"id":54,"left_children":[1,3,-1,5,-1,7,9,-1,-1,-1,-1],"loss_changes":[3.8754986E1,3.1240122E1,0E0,4.585396E0,0E0,1.8999124E0,6.1603546E-2,0E0,0E0,0E0,0E0],"parents":[2147483647,0,0,1,1,3,3,5,5,6,6],"right_children":[2,4,-1,6,-1,8,10,-1,-1,-1,-1],"split_conditions":[2.94E-1,2.72E-1,-2.8663445E-2,1E-3,-2.7661128E-2,1E-3,6.8E-2,3.4948613E-2,-2.1522854E-2,5.684144E-2,1.885241E-2],"split_indices":[112,590,0,61,0,0,221,0,0,0,0],"split_type":[0,0,0,0,0,0,0,0,0,0,0],"sum_hessian":[1.17498405E2,6.0072163E1,5.7426243E1,4.294379E1,1.7128372E1,4.2281685E0,3.8715622E1,1.4663508E0,2.7618177E0,3.735114E1,1.364482E0],"tree_param":{"num_deleted":"0","num_feature":"751","num_nodes":"11","size_leaf_vector":"1"}},{"base_weights":[-2.1026269E-2,-5.5831057E-1,8.2093E-1,-2.85496E-2,1.2495662E-3,-2.480022E-1,1.0643371E0,3.421027E-2,-2.5841022E-2,5.5067282E-2,1.6991369E-3],"categories":[],"categories_nodes":[],"categories_segments":[],"categories_sizes":[],"default_left":[0,0,0,0,0,0,0,0,0,0,0],"id":55,"left_children":[1,3,5,-1,-1,7,9,-1,-1,-1,-1],"loss_changes":[5.21075E1,5.34235E-1,1.1941509E1,0E0,0E0,2.64291E0,1.3637772E0,0E0,0E0,0E0,0E0],"parents":[2147483647,0,0,1,1,2,2,5,5,6,6],"right_children":[2,4,6,-1,-1,8,10,-1,-1,-1,-1],"split_conditions":[5.55E-1,5.35E-1,5.44E-1,-2.85496E-2,1.2495662E-3,6.21E-1,4.31E-1,3.421027E-2,-2.5841022E-2,5.5067282E-2,1.6991369E-3],"split_indices":[351,661,144,0,0,33,78,0,0,0,0],"split_type":[0,0,0,0,0,0,0,0,0,0,0],"sum_hessian":[1.1317462E2,6.929301E1,4.388161E1,6.783923E1,1.4537764E0,8.135474E0,3.574614E1,1.475053E0,6.6604214E0,3.4440205E1,1.3059314E0],"tree_param":{"num_deleted":"0","num_feature":"751","num_nodes":"11","size_leaf_vector":"1"}},{"base_weights":[-3.7998192E-2,5.788749E-1,-2.8561933E-2,-2.748212E-2,5.40128E-2],"categories":[],"categories_nodes":[],"categories_segments":[],"categories_sizes":[],"default_left":[0,0,0,0,0],"id":56,"left_children":[1,3,-1,-1,-1],"loss_changes":[3.8872044E1,3.1612158E1,0E0,0E0,0E0],"parents":[2147483647,0,0,1,1],"right_children":[2,4,-1,-1,-1],"split_conditions":[3.2E-2,1.72E-1,-2.8561933E-2,-2.748212E-2,5.40128E-2],"split_indices":[424,230,0,0,0],"split_type":[0,0,0,0,0],"sum_hessian":[1.1616779E2,5.3820538E1,6.234725E1,1.652639E1,3.7294147E1],"tree_param":{"num_deleted":"0","num_feature":"751","num_nodes":"5","size_leaf_vector":"1"}},{"base_weights":[1.6257573E-2,-2.8461564E-2,5.8371884E-1,1.0157503E0,-4.4450185E-1,3.707713E-1,5.3901028E-2,-2.7393995E-2,2.9060666E-2,4.224043E-2,-1.8815657E-2],"categories":[],"categories_nodes":[],"categories_segments":[],"categories_sizes":[],"default_left":[0,0,0,0,0,0,0,0,0,0,0],"id":57,"left_children":[1,-1,3,5,7,9,-1,-1,-1,-1,-1],"loss_changes":[3.7578297E1,0E0,2.5960001E1,1.2364655E0,2.1936593E0,2.1279702E0,0E0,0E0,0E0,0E0,0E0],"parents":[2147483647,0,0,2,2,3,3,4,4,5,5],"right_children":[2,-1,4,6,8,10,-1,-1,-1,-1,-1],"split_conditions":[1.99E-1,-2.8461564E-2,5.94E-1,1E-3,1.64E-1,6.81E-1,5.3901028E-2,-2.7393995E-2,2.9060666E-2,4.224043E-2,-1.8815657E-2],"split_indices":[11,0,144,320,370,1,0,0,0,0,0],"split_type":[0,0,0,0,0,0,0,0,0,0,0],"sum_hessian":[1.1110502E2,5.4682354E1,5.6422665E1,3.973795E1,1.6684715E1,4.1110516E0,3.5626896E1,1.5580292E1,1.1044245E0,2.4351203E0,1.6759312E0],"tree_param":{"num_deleted":"0","num_feature":"751","num_nodes":"11","size_leaf_vector":"1"}},{"base_weights":[-5.4064147E-2,4.0929776E-1,-5.5279404E-1,-2.7806519E-2,5.37758E-2,5.147883E-3,-2.8471429E-2],"categories":[],"categories_nodes":[],"categories_segments":[],"categories_sizes":[],"default_left":[0,0,0,0,0,0,0],"id":58,"left_children":[1,3,5,-1,-1,-1,-1],"loss_changes":[2.6202885E1,3.84462E1,6.538105E-1,0E0,0E0,0E0,0E0],"parents":[2147483647,0,0,1,1,2,2],"right_children":[2,4,6,-1,-1,-1,-1],"split_conditions":[1.5E-2,4.7E-2,1.5E-2,-2.7806519E-2,5.37758E-2,5.147883E-3,-2.8471429E-2],"split_indices":[451,82,301,0,0,0,0],"split_type":[0,0,0,0,0,0,0],"sum_hessian":[1.1140795E2,5.7844696E1,5.3563255E1,2.3686062E1,3.4158634E1,1.1967463E0,5.236651E1],"tree_param":{"num_deleted":"0","num_feature":"751","num_nodes":"7","size_leaf_vector":"1"}},{"base_weights":[1.03537785E-2,5.856191E-1,-2.8500572E-2,5.43741E-2,-3.530669E-1,-5.1210296E-1,4.271513E-2,5.5964617E-3,-2.7672539E-2],"categories":[],"categories_nodes":[],"categories_segments":[],"categories_sizes":[],"default_left":[0,0,0,0,0,0,0,0,0],"id":59,"left_children":[1,3,-1,-1,5,7,-1,-1,-1],"loss_changes":[3.960518E1,2.8445105E1,0E0,0E0,4.5671206E0,5.684171E-1,0E0,0E0,0E0],"parents":[2147483647,0,0,1,1,4,4,5,5],"right_children":[2,4,-1,-1,6,8,-1,-1,-1],"split_conditions":[2.94E-1,1.74E-1,-2.8500572E-2,5.43741E-2,7.1E-2,1.88E-1,4.271513E-2,5.5964617E-3,-2.7672539E-2],"split_indices":[112,280,0,0,44,0,0,0,0],"split_type":[0,0,0,0,0,0,0,0,0],"sum_hessian":[1.16626854E2,5.856622E1,5.806063E1,3.805945E1,2.0506773E1,1.8628817E1,1.8779564E0,1.0515481E0,1.7577269E1],"tree_param":{"num_deleted":"0","num_feature":"751","num_nodes":"9","size_leaf_vector":"1"}},{"base_weights":[-2.5521636E-3,-2.8389046E-2,7.8912455E-1,-3.1963897E-1,1.0052338E0,2.1260193E-2,-2.5184363E-2,5.254137E-2,-1.5873065E-2],"categories":[],"categories_nodes":[],"categories_segments":[],"categories_sizes":[],"default_left":[0,0,0,0,0,0,0,0,0],"id":60,"left_children":[1,-1,3,5,7,-1,-1,-1,-1],"loss_changes":[5.1449383E1,0E0,1.1797752E1,1.3891857E0,2.7654E0,0E0,0E0,0E0,0E0],"parents":[2147483647,0,0,2,2,3,3,4,4],"right_children":[2,-1,4,6,8,-1,-1,-1,-1],"split_conditions":[5.49E-1,-2.8389046E-2,5.43E-1,2.54E-1,4.25E-1,2.1260193E-2,-2.5184363E-2,5.254137E-2,-1.5873065E-2],"split_indices":[611,0,144,8,38,0,0,0,0],"split_type":[0,0,0,0,0,0,0,0,0],"sum_hessian":[1.1297495E2,6.607942E1,4.6895523E1,7.5713124E0,3.932421E1,1.2405453E0,6.330767E0,3.821256E1,1.1116548E0],"tree_param":{"num_deleted":"0","num_feature":"751","num_nodes":"9","size_leaf_vector":"1"}},{"base_weights":[-6.637521E-3,6.530376E-1,-5.418739E-1,-2.675247E-2,5.137387E-2,1.3016708E-2,-2.8388157E-2],"categories":[],"categories_nodes":[],"categories_segments":[],"categories_sizes":[],"default_left":[0,0,0,0,0,0,0],"id":61,"left_children":[1,3,5,-1,-1,-1,-1],"loss_changes":[4.124838E1,2.3831154E1,1.4871349E0,0E0,0E0,0E0,0E0],"parents":[2147483647,0,0,1,1,2,2],"right_children":[2,4,6,-1,-1,-1,-1],"split_conditions":[3.5E-2,1.8E-1,1E-3,-2.675247E-2,5.137387E-2,1.3016708E-2,-2.8388157E-2],"split_indices":[253,430,72,0,0,0,0],"split_type":[0,0,0,0,0,0,0],"sum_hessian":[1.1482155E2,5.13334E1,6.348815E1,1.219861E1,3.913479E1,1.7017502E0,6.1786404E1],"tree_param":{"num_deleted":"0","num_feature":"751","num_nodes":"7","size_leaf_vector":"1"}},{"base_weights":[4.0508367E-2,-2.83093E-2,5.8997136E-1,9.499693E-1,-2.7141292E-2,3.120367E-1,5.1896673E-2,4.4301417E-2,-2.1803549E-2],"categories":[],"categories_nodes":[],"categories_segments":[],"categories_sizes":[],"default_left":[0,0,0,0,0,0,0,0,0],"id":62,"left_children":[1,-1,3,5,-1,7,-1,-1,-1],"loss_changes":[4.008011E1,0E0,2.6230103E1,2.3816147E0,0E0,3.5091608E0,0E0,0E0,0E0],"parents":[2147483647,0,0,2,2,3,3,5,5],"right_children":[2,-1,4,6,-1,8,-1,-1,-1],"split_conditions":[1.99E-1,-2.83093E-2,7.13E-1,1E-3,-2.7141292E-2,6.81E-1,5.1896673E-2,4.4301417E-2,-2.1803549E-2],"split_indices":[21,0,394,320,0,1,0,0,0],"split_type":[0,0,0,0,0,0,0,0,0],"sum_hessian":[1.1823007E2,5.6174297E1,6.205578E1,4.721307E1,1.4842709E1,6.2723217E0,4.0940746E1,3.444863E0,2.8274584E0],"tree_param":{"num_deleted":"0","num_feature":"751","num_nodes":"9","size_leaf_vector":"1"}},{"base_weights":[5.5025322E-3,4.9441582E-1,-5.3351676E-1,-2.7426034E-2,5.147117E-2,-1.0806485E-1,-2.82814E-2,-2.1622855E-2,2.6512614E-2],"categories":[],"categories_nodes":[],"categories_segments":[],"categories_sizes":[],"default_left":[0,0,0,0,0,0,0,0,0],"id":63,"left_children":[1,3,5,-1,-1,7,-1,-1,-1],"loss_changes":[3.0060358E1,3.393595E1,6.801386E-1,0E0,0E0,1.2737371E0,0E0,0E0,0E0],"parents":[2147483647,0,0,1,1,2,2,5,5],"right_children":[2,4,6,-1,-1,8,-1,-1,-1],"split_conditions":[1.4E-2,4.7E-2,1.9E-2,-2.7426034E-2,5.147117E-2,1.15E-1,-2.82814E-2,-2.1622855E-2,2.6512614E-2],"split_indices":[731,82,731,0,0,4,0,0,0],"split_type":[0,0,0,0,0,0,0,0,0],"sum_hessian":[1.1206554E2,5.8807446E1,5.325809E1,1.993031E1,3.8877136E1,4.0439487E0,4.9214146E1,2.8951435E0,1.148805E0],"tree_param":{"num_deleted":"0","num_feature":"751","num_nodes":"9","size_leaf_vector":"1"}},{"base_weights":[1.0725551E-2,5.74534E-1,-2.8317882E-2,1.0265285E0,-3.367646E-1,5.205683E-2,1.7928263E-2,-2.7341804E-2,4.3100156E-2],"categories":[],"categories_nodes":[],"categories_segments":[],"categories_sizes":[],"default_left":[0,0,0,0,0,0,0,0,0],"id":64,"left_children":[1,3,-1,5,7,-1,-1,-1,-1],"loss_changes":[3.7958725E1,2.4648706E1,0E0,1.3938904E-2,5.5871954E0,0E0,0E0,0E0,0E0],"parents":[2147483647,0,0,1,1,3,3,4,4],"right_children":[2,4,-1,6,8,-1,-1,-1,-1],"split_conditions":[2.94E-1,1.79E-1,-2.8317882E-2,7.6E-2,3.1E-2,5.205683E-2,1.7928263E-2,-2.7341804E-2,4.3100156E-2],"split_indices":[112,440,0,191,224,0,0,0,0],"split_type":[0,0,0,0,0,0,0,0,0],"sum_hessian":[1.1466521E2,5.8001926E1,5.6663284E1,3.868709E1,1.9314835E1,3.731241E1,1.3746824E0,1.689755E1,2.4172838E0],"tree_param":{"num_deleted":"0","num_feature":"751","num_nodes":"9","size_leaf_vector":"1"}},{"base_weights":[-1.4782372E-2,-2.819462E-2,7.2702247E-1,9.690634E-1,-4.2296776E-1,4.9926315E-2,1.1482056E-2,6.1729476E-3,-2.5417535E-2],"categories":[],"categories_nodes":[],"categories_segments":[],"categories_sizes":[],"default_left":[0,0,0,0,0,0,0,0,0],"id":65,"left_children":[1,-1,3,5,7,-1,-1,-1,-1],"loss_changes":[4.5342815E1,0E0,1.3591963E1,6.2966156E-1,4.794278E-1,0E0,0E0,0E0,0E0],"parents":[2147483647,0,0,2,2,3,3,4,4],"right_children":[2,-1,4,6,8,-1,-1,-1,-1],"split_conditions":[5.35E-1,-2.819462E-2,1.45E-1,4.16E-1,1.47E-1,4.9926315E-2,1.1482056E-2,6.1729476E-3,-2.5417535E-2],"split_indices":[661,0,130,258,120,0,0,0,0],"split_type":[0,0,0,0,0,0,0,0,0],"sum_hessian":[1.0931002E2,6.295118E1,4.6358837E1,3.842812E1,7.93072E0,3.6618607E1,1.8095118E0,1.0114945E0,6.9192257E0],"tree_param":{"num_deleted":"0","num_feature":"751","num_nodes":"9","size_leaf_vector":"1"}},{"base_weights":[5.0612254E-4,6.368724E-1,-5.223042E-1,-2.6506236E-2,9.7803605E-1,-8.041464E-2,-2.817138E-2,1.6857473E-2,4.970989E-2,-2.3151813E-2,3.6619514E-2],"categories":[],"categories_nodes":[],"categories_segments":[],"categories_sizes":[],"default_left":[0,0,0,0,0,0,0,0,0,0,0],"id":66,"left_children":[1,3,5,-1,7,9,-1,-1,-1,-1,-1],"loss_changes":[3.7279675E1,2.0639257E1,1.072546E0,0E0,7.349396E-2,2.330697E0,0E0,0E0,0E0,0E0,0E0],"parents":[2147483647,0,0,1,1,2,2,4,4,5,5],"right_children":[2,4,6,-1,8,10,-1,-1,-1,-1,-1],"split_conditions":[1.9E-2,1.48E-1,4.1E-2,-2.6506236E-2,1.9E-1,2.66E-1,-2.817138E-2,1.6857473E-2,4.970989E-2,-2.3151813E-2,3.6619514E-2],"split_indices":[104,510,253,0,230,0,0,0,0,0,0],"split_type":[0,0,0,0,0,0,0,0,0,0,0],"sum_hessian":[1.10052475E2,4.9537323E1,6.051515E1,1.108063E1,3.845669E1,5.4038415E0,5.511131E1,1.4836639E0,3.697303E1,3.9668164E0,1.437025E0],"tree_param":{"num_deleted":"0","num_feature":"751","num_nodes":"11","size_leaf_vector":"1"}},{"base_weights":[6.476923E-2,-2.8096175E-2,5.856081E-1,9.1163325E-1,-2.6864175E-2,4.0152127E-1,5.014158E-2,4.808147E-2,-2.26395E-2],"categories":[],"categories_nodes":[],"categories_segments":[],"categories_sizes":[],"default_left":[0,0,0,0,0,0,0,0,0],"id":67,"left_children":[1,-1,3,5,-1,7,-1,-1,-1],"loss_changes":[3.79568E1,0E0,2.3716835E1,1.9020462E0,0E0,4.8287687E0,0E0,0E0,0E0],"parents":[2147483647,0,0,2,2,3,3,5,5],"right_children":[2,-1,4,6,-1,8,-1,-1,-1],"split_conditions":[1.99E-1,-2.8096175E-2,7.13E-1,3.9E-2,-2.6864175E-2,8.61E-1,5.014158E-2,4.808147E-2,-2.26395E-2],"split_indices":[21,0,394,390,0,31,0,0,0],"split_type":[0,0,0,0,0,0,0,0,0],"sum_hessian":[1.1427893E2,5.183284E1,6.2446087E1,4.854071E1,1.3905376E1,8.181383E0,4.0359325E1,4.8656926E0,3.3156908E0],"tree_param":{"num_deleted":"0","num_feature":"751","num_nodes":"9","size_leaf_vector":"1"}},{"base_weights":[-3.375738E-2,4.0089497E-1,-5.2714175E-1,-2.7405834E-2,4.9428314E-2,-1.07634455E-1,-2.808365E-2,-2.1746736E-2,2.838254E-2],"categories":[],"categories_nodes":[],"categories_segments":[],"categories_sizes":[],"default_left":[0,0,0,0,0,0,0,0,0],"id":68,"left_children":[1,3,5,-1,-1,7,-1,-1,-1],"loss_changes":[2.3567345E1,3.3150833E1,6.8472767E-1,0E0,0E0,1.3850046E0,0E0,0E0,0E0],"parents":[2147483647,0,0,1,1,2,2,5,5],"right_children":[2,4,6,-1,-1,8,-1,-1,-1],"split_conditions":[1.5E-2,4.7E-2,2.2E-2,-2.7405834E-2,4.9428314E-2,8.3E-2,-2.808365E-2,-2.1746736E-2,2.838254E-2],"split_indices":[451,82,701,0,0,252,0,0,0],"split_type":[0,0,0,0,0,0,0,0,0],"sum_hessian":[1.07910904E2,5.7469753E1,5.0441147E1,2.200381E1,3.5465942E1,4.1493454E0,4.62918E1,3.0344965E0,1.1148489E0],"tree_param":{"num_deleted":"0","num_feature":"751","num_nodes":"9","size_leaf_vector":"1"}},{"base_weights":[1.5232647E-2,5.279402E-1,-2.8136957E-2,9.3779415E-1,-4.9653423E-1,2.9254764E-1,4.9961276E-2,-2.710384E-2,7.142089E-3,3.7431862E-2,-1.926389E-2],"categories":[],"categories_nodes":[],"categories_segments":[],"categories_sizes":[],"default_left":[0,0,0,0,0,0,0,0,0,0,0],"id":69,"left_children":[1,3,-1,5,7,9,-1,-1,-1,-1,-1],"loss_changes":[3.453094E1,2.6387377E1,0E0,1.4692421E0,6.1014366E-1,1.9198794E0,0E0,0E0,0E0,0E0,0E0],"parents":[2147483647,0,0,1,1,3,3,4,4,5,5],"right_children":[2,4,-1,6,8,10,-1,-1,-1,-1,-1],"split_conditions":[2.21E-1,2.55E-1,-2.8136957E-2,1E-3,4.1E-2,1E-3,4.9961276E-2,-2.710384E-2,7.142089E-3,3.7431862E-2,-1.926389E-2],"split_indices":[92,280,0,581,583,0,0,0,0,0,0],"split_type":[0,0,0,0,0,0,0,0,0,0,0],"sum_hessian":[1.145259E2,6.073533E1,5.3790573E1,4.3440872E1,1.7294456E1,4.277214E0,3.916366E1,1.628655E1,1.0079069E0,2.4943604E0,1.7828536E0],"tree_param":{"num_deleted":"0","num_feature":"751","num_nodes":"11","size_leaf_vector":"1"}},{"base_weights":[-4.478322E-2,-2.802375E-2,7.0750046E-1,9.277457E-1,-2.4873098E-2,4.810091E-2,4.6510668E-4],"categories":[],"categories_nodes":[],"categories_segments":[],"categories_sizes":[],"default_left":[0,0,0,0,0,0,0],"id":70,"left_children":[1,-1,3,5,-1,-1,-1],"loss_changes":[3.9594826E1,0E0,1.1484556E1,1.1074276E0,0E0,0E0,0E0],"parents":[2147483647,0,0,2,2,3,3],"right_children":[2,-1,4,6,-1,-1,-1],"split_conditions":[5.35E-1,-2.802375E-2,1.41E-1,3.93E-1,-2.4873098E-2,4.810091E-2,4.6510668E-4],"split_indices":[661,0,130,138,0,0,0],"split_type":[0,0,0,0,0,0,0],"sum_hessian":[1.0004045E2,5.9504787E1,4.0535667E1,3.4465977E1,6.0696907E0,3.3180378E1,1.2855973E0],"tree_param":{"num_deleted":"0","num_feature":"751","num_nodes":"7","size_leaf_vector":"1"}},{"base_weights":[7.7153896E-3,5.9095436E-1,-5.314011E-1,-2.6529623E-2,9.3179864E-1,3.1622425E-2,-2.8013414E-2,4.7681984E-2,3.1379722E-3,-1.7585682E-2,2.3441968E-2],"categories":[],"categories_nodes":[],"categories_segments":[],"categories_sizes":[],"default_left":[0,0,0,0,0,0,0,0,0,0,0],"id":71,"left_children":[1,3,5,-1,7,9,-1,-1,-1,-1,-1],"loss_changes":[3.4968613E1,2.0912907E1,9.571228E-1,0E0,7.245636E-1,7.960006E-1,0E0,0E0,0E0,0E0,0E0],"parents":[2147483647,0,0,1,1,2,2,4,4,5,5],"right_children":[2,4,6,-1,8,10,-1,-1,-1,-1,-1],"split_conditions":[3.5E-2,1.72E-1,4.1E-2,-2.6529623E-2,-8.24E-1,1.73E-1,-2.8013414E-2,4.7681984E-2,3.1379722E-3,-1.7585682E-2,2.3441968E-2],"split_indices":[253,230,583,0,167,180,0,0,0,0,0],"split_type":[0,0,0,0,0,0,0,0,0,0,0],"sum_hessian":[1.0921266E2,5.2413437E1,5.6799225E1,1.2086419E1,4.032702E1,2.7655103E0,5.4033714E1,3.924339E1,1.0836278E0,1.5777546E0,1.1877557E0],"tree_param":{"num_deleted":"0","num_feature":"751","num_nodes":"11","size_leaf_vector":"1"}},{"base_weights":[3.722021E-2,-2.7959121E-2,5.6053984E-1,9.1037637E-1,-4.8009747E-1,4.391396E-1,4.7991585E-2,-2.6736438E-2,6.8534017E-3,4.2324916E-2,-1.8787174E-2],"categories":[],"categories_nodes":[],"categories_segments":[],"categories_sizes":[],"default_left":[0,0,0,0,0,0,0,0,0,0,0],"id":72,"left_children":[1,-1,3,5,7,9,-1,-1,-1,-1,-1],"loss_changes":[3.5885063E1,0E0,2.2718805E1,6.5406036E-1,6.145637E-1,2.3850536E0,0E0,0E0,0E0,0E0,0E0],"parents":[2147483647,0,0,2,2,3,3,4,4,5,5],"right_children":[2,-1,4,6,8,10,-1,-1,-1,-1,-1],"split_conditions":[1.99E-1,-2.7959121E-2,6.44E-1,1E-3,1.13E-1,6.65E-1,4.7991585E-2,-2.6736438E-2,6.8534017E-3,4.2324916E-2,-1.8787174E-2],"split_indices":[11,0,114,80,180,1,0,0,0,0,0],"split_type":[0,0,0,0,0,0,0,0,0,0,0],"sum_hessian":[1.1297171E2,5.2767063E1,6.020465E1,4.515113E1,1.5053519E1,5.2268085E0,3.992432E1,1.3952061E1,1.1014588E0,3.4589086E0,1.7678999E0],"tree_param":{"num_deleted":"0","num_feature":"751","num_nodes":"11","size_leaf_vector":"1"}},{"base_weights":[-2.2841543E-2,4.236409E-1,-5.08646E-1,-2.7100412E-2,4.7444552E-2,-1.3219105E-1,-2.7905164E-2,-2.3865847E-2,3.8788117E-2],"categories":[],"categories_nodes":[],"categories_segments":[],"categories_sizes":[],"default_left":[0,0,0,0,0,0,0,0,0],"id":73,"left_children":[1,3,5,-1,-1,7,-1,-1,-1],"loss_changes":[2.3508024E1,2.9173388E1,8.9220524E-1,0E0,0E0,2.6687922E0,0E0,0E0,0E0],"parents":[2147483647,0,0,1,1,2,2,5,5],"right_children":[2,4,6,-1,-1,8,-1,-1,-1],"split_conditions":[1.4E-2,4.7E-2,2.2E-2,-2.7100412E-2,4.7444552E-2,6.2E-2,-2.7905164E-2,-2.3865847E-2,3.8788117E-2],"split_indices":[731,82,731,0,0,2,0,0,0],"split_type":[0,0,0,0,0,0,0,0,0],"sum_hessian":[1.0638682E2,5.5503677E1,5.0883137E1,1.954294E1,3.5960735E1,6.335081E0,4.4548058E1,4.9339213E0,1.4011595E0],"tree_param":{"num_deleted":"0","num_feature":"751","num_nodes":"9","size_leaf_vector":"1"}},{"base_weights":[3.7887532E-2,5.284243E-1,-2.7929073E-2,9.462533E-1,-4.1266978E-1,4.7994148E-2,1.609079E-2,-2.7061362E-2,3.2678626E-2],"categories":[],"categories_nodes":[],"categories_segments":[],"categories_sizes":[],"default_left":[0,0,0,0,0,0,0,0,0],"id":74,"left_children":[1,3,-1,5,7,-1,-1,-1,-1],"loss_changes":[3.1623253E1,2.3695215E1,0E0,4.3003082E-2,2.947045E0,0E0,0E0,0E0,0E0],"parents":[2147483647,0,0,1,1,3,3,4,4],"right_children":[2,4,-1,6,8,-1,-1,-1,-1],"split_conditions":[2.94E-1,1.83E-1,-2.7929073E-2,1.77E-1,6.7E-2,4.7994148E-2,1.609079E-2,-2.7061362E-2,3.2678626E-2],"split_indices":[112,430,0,260,3,0,0,0,0],"split_type":[0,0,0,0,0,0,0,0,0],"sum_hessian":[1.06071625E2,5.826692E1,4.7804707E1,4.0347755E1,1.7919165E1,3.896017E1,1.3875837E0,1.6430525E1,1.4886403E0],"tree_param":{"num_deleted":"0","num_feature":"751","num_nodes":"9","size_leaf_vector":"1"}},{"base_weights":[-4.3529633E-2,-2.7888974E-2,6.8594825E-1,8.6616826E-1,-2.4147674E-2,9.138991E-1,-4.616966E-3,4.5858347E-3,4.6757083E-2],"categories":[],"categories_nodes":[],"categories_segments":[],"categories_sizes":[],"default_left":[0,0,0,0,0,0,0,0,0],"id":75,"left_children":[1,-1,3,5,-1,7,-1,-1,-1],"loss_changes":[3.9488464E1,0E0,9.592779E0,1.8270874E0,0E0,5.49551E-1,0E0,0E0,0E0],"parents":[2147483647,0,0,2,2,3,3,5,5],"right_children":[2,-1,4,6,-1,8,-1,-1,-1],"split_conditions":[5.51E-1,-2.7888974E-2,1.45E-1,4.05E-1,-2.4147674E-2,4.1E-1,-4.616966E-3,4.5858347E-3,4.6757083E-2],"split_indices":[251,0,130,738,0,654,0,0,0],"split_type":[0,0,0,0,0,0,0,0,0],"sum_hessian":[1.0324505E2,6.0693893E1,4.2551155E1,3.709143E1,5.459726E0,3.537633E1,1.7150995E0,1.0249181E0,3.4351414E1],"tree_param":{"num_deleted":"0","num_feature":"751","num_nodes":"9","size_leaf_vector":"1"}},{"base_weights":[-2.0422509E-2,5.696157E-1,-5.301522E-1,-2.6367811E-2,4.621054E-2,-5.430161E-1,3.6176932E-3,-2.9483706E-1,-2.7867088E-2,-2.165172E-2,6.1460226E-3],"categories":[],"categories_nodes":[],"categories_segments":[],"categories_sizes":[],"default_left":[0,0,0,0,0,0,0,0,0,0,0],"id":76,"left_children":[1,3,5,-1,-1,7,-1,9,-1,-1,-1],"loss_changes":[3.305751E1,2.0309929E1,4.9617958E-1,0E0,0E0,4.1294098E-2,0E0,3.58022E-1,0E0,0E0,0E0],"parents":[2147483647,0,0,1,1,2,2,5,5,7,7],"right_children":[2,4,6,-1,-1,8,-1,10,-1,-1,-1],"split_conditions":[1.9E-2,1.72E-1,7.783E1,-2.6367811E-2,4.621054E-2,7.7E-2,3.6176932E-3,-1.032E0,-2.7867088E-2,-2.165172E-2,6.1460226E-3],"split_indices":[104,230,606,0,0,29,0,17,0,0,0],"split_type":[0,0,0,0,0,0,0,0,0,0,0],"sum_hessian":[1.079092E2,4.996021E1,5.7948994E1,1.2085478E1,3.787473E1,5.683428E1,1.1147137E0,4.27936E0,5.255492E1,3.1881323E0,1.0912272E0],"tree_param":{"num_deleted":"0","num_feature":"751","num_nodes":"11","size_leaf_vector":"1"}},{"base_weights":[1.1828285E-2,-2.7812028E-2,5.2522695E-1,8.8278735E-1,-4.3031076E-1,4.3570793E-1,4.603995E-2,-2.6723215E-2,2.6099471E-2,3.8200762E-2,-1.6528483E-2],"categories":[],"categories_nodes":[],"categories_segments":[],"categories_sizes":[],"default_left":[0,0,0,0,0,0,0,0,0,0,0],"id":77,"left_children":[1,-1,3,5,7,9,-1,-1,-1,-1,-1],"loss_changes":[3.2634144E1,0E0,2.0457561E1,3.3109283E-1,1.9328117E0,1.5795575E0,0E0,0E0,0E0,0E0,0E0],"parents":[2147483647,0,0,2,2,3,3,4,4,5,5],"right_children":[2,-1,4,6,8,10,-1,-1,-1,-1,-1],"split_conditions":[1.99E-1,-2.7812028E-2,5.84E-1,1E-3,1.81E-1,6.81E-1,4.603995E-2,-2.6723215E-2,2.6099471E-2,3.8200762E-2,-1.6528483E-2],"split_indices":[11,0,184,320,580,1,0,0,0,0,0],"split_type":[0,0,0,0,0,0,0,0,0,0,0],"sum_hessian":[1.09894775E2,5.2130085E1,5.7764694E1,4.2090603E1,1.56740885E1,4.2747693E0,3.7815834E1,1.4524322E1,1.1497674E0,2.9946718E0,1.2800976E0],"tree_param":{"num_deleted":"0","num_feature":"751","num_nodes":"11","size_leaf_vector":"1"}},{"base_weights":[3.7252347E-3,4.3419757E-1,-5.1785153E-1,-2.6911337E-2,4.5969248E-2,-1.4192541E-1,-2.7718127E-2,-2.214149E-2,2.6995067E-2],"categories":[],"categories_nodes":[],"categories_segments":[],"categories_sizes":[],"default_left":[0,0,0,0,0,0,0,0,0],"id":78,"left_children":[1,3,5,-1,-1,7,-1,-1,-1],"loss_changes":[2.3326546E1,2.7346748E1,5.661278E-1,0E0,0E0,1.3680899E0,0E0,0E0,0E0],"parents":[2147483647,0,0,1,1,2,2,5,5],"right_children":[2,4,6,-1,-1,8,-1,-1,-1],"split_conditions":[1.5E-2,1.54E-1,2.2E-2,-2.6911337E-2,4.5969248E-2,9.2E-2,-2.7718127E-2,-2.214149E-2,2.6995067E-2],"split_indices":[431,83,701,0,0,232,0,0,0],"split_type":[0,0,0,0,0,0,0,0,0],"sum_hessian":[1.01891716E2,5.59128E1,4.5978912E1,1.8575005E1,3.733779E1,4.5029244E0,4.147599E1,3.3673618E0,1.1355627E0],"tree_param":{"num_deleted":"0","num_feature":"751","num_nodes":"9","size_leaf_vector":"1"}},{"base_weights":[2.0548748E-2,5.056703E-1,-2.7796714E-2,8.6817956E-1,-2.6723621E-2,2.032804E-1,4.6222724E-2,3.269744E-2,-1.8156381E-2],"categories":[],"categories_nodes":[],"categories_segments":[],"categories_sizes":[],"default_left":[0,0,0,0,0,0,0,0,0],"id":79,"left_children":[1,3,-1,5,-1,7,-1,-1,-1],"loss_changes":[3.0564005E1,2.283302E1,0E0,1.4724007E0,0E0,1.4485419E0,0E0,0E0,0E0],"parents":[2147483647,0,0,1,1,3,3,5,5],"right_children":[2,4,-1,6,-1,8,-1,-1,-1],"split_conditions":[2.21E-1,2.58E-1,-2.7796714E-2,1E-3,-2.6723621E-2,1E-3,4.6222724E-2,3.269744E-2,-1.8156381E-2],"split_indices":[112,600,0,1,0,0,0,0,0],"split_type":[0,0,0,0,0,0,0,0,0],"sum_hessian":[1.07282974E2,5.8324566E1,4.895841E1,4.3373436E1,1.495113E1,3.7444348E0,3.9629E1,1.9991981E0,1.7452368E0],"tree_param":{"num_deleted":"0","num_feature":"751","num_nodes":"9","size_leaf_vector":"1"}},{"base_weights":[-1.8599683E-2,-2.7715027E-2,6.6836345E-1,8.416203E-1,-2.4205651E-2,7.3061354E-2,4.5456797E-2,-2.0515377E-2,2.9418895E-2],"categories":[],"categories_nodes":[],"categories_segments":[],"categories_sizes":[],"default_left":[0,0,0,0,0,0,0,0,0],"id":80,"left_children":[1,-1,3,5,-1,7,-1,-1,-1],"loss_changes":[3.825279E1,0E0,9.503681E0,2.0074577E0,0E0,1.3161923E0,0E0,0E0,0E0],"parents":[2147483647,0,0,2,2,3,3,5,5],"right_children":[2,-1,4,6,-1,8,-1,-1,-1],"split_conditions":[5.35E-1,-2.7715027E-2,1.51E-1,5.72E-1,-2.4205651E-2,6.464E1,4.5456797E-2,-2.0515377E-2,2.9418895E-2],"split_indices":[661,0,120,164,0,6,0,0,0],"split_type":[0,0,0,0,0,0,0,0,0],"sum_hessian":[1.0193916E2,5.73838E1,4.4555363E1,3.896701E1,5.588353E0,3.3148465E0,3.565216E1,1.8155909E0,1.4992555E0],"tree_param":{"num_deleted":"0","num_feature":"751","num_nodes":"9","size_leaf_vector":"1"}},{"base_weights":[-4.3022722E-2,5.4416287E-1,-5.269698E-1,-2.602912E-2,4.427589E-2,-7.327089E-2,-2.7735008E-2,-1.973707E-2,2.2200195E-2],"categories":[],"categories_nodes":[],"categories_segments":[],"categories_sizes":[],"default_left":[0,0,0,0,0,0,0,0,0],"id":81,"left_children":[1,3,5,-1,-1,7,-1,-1,-1],"loss_changes":[2.9959797E1,1.7787075E1,6.8593216E-1,0E0,0E0,9.200146E-1,0E0,0E0,0E0],"parents":[2147483647,0,0,1,1,2,2,5,5],"right_children":[2,4,6,-1,-1,8,-1,-1,-1],"split_conditions":[1.9E-2,1.72E-1,3.2E-2,-2.602912E-2,4.427589E-2,3.1E-2,-2.7735008E-2,-1.973707E-2,2.2200195E-2],"split_indices":[104,230,424,0,0,104,0,0,0],"split_type":[0,0,0,0,0,0,0,0,0],"sum_hessian":[1.0342122E2,4.6670387E1,5.6750828E1,1.1202572E1,3.5467815E1,3.4786475E0,5.3272182E1,2.2914584E0,1.187189E0],"tree_param":{"num_deleted":"0","num_feature":"751","num_nodes":"9","size_leaf_vector":"1"}},{"base_weights":[4.6025503E-2,-2.7596299E-2,5.2304584E-1,8.335282E-1,-2.6336899E-2,3.3915263E-1,4.4883534E-2,4.101751E-2,-2.0231158E-2],"categories":[],"categories_nodes":[],"categories_segments":[],"categories_sizes":[],"default_left":[0,0,0,0,0,0,0,0,0],"id":82,"left_children":[1,-1,3,5,-1,7,-1,-1,-1],"loss_changes":[2.9560835E1,0E0,1.921259E1,1.117403E0,0E0,2.75017E0,0E0,0E0,0E0],"parents":[2147483647,0,0,2,2,3,3,5,5],"right_children":[2,-1,4,6,-1,8,-1,-1,-1],"split_conditions":[1.99E-1,-2.7596299E-2,6.52E-1,1E-3,-2.6336899E-2,8.72E-1,4.4883534E-2,4.101751E-2,-2.0231158E-2],"split_indices":[11,0,104,320,0,1,0,0,0],"split_type":[0,0,0,0,0,0,0,0,0],"sum_hessian":[1.0162467E2,4.5026417E1,5.659825E1,4.3838615E1,1.2759638E1,5.756683E0,3.8081932E1,3.4328153E0,2.3238678E0],"tree_param":{"num_deleted":"0","num_feature":"751","num_nodes":"9","size_leaf_vector":"1"}},{"base_weights":[-6.437297E-2,3.4442976E-1,-5.346217E-1,-2.6887996E-2,4.4286367E-2,-4.3880247E-4,-2.763685E-2],"categories":[],"categories_nodes":[],"categories_segments":[],"categories_sizes":[],"default_left":[0,0,0,0,0,0,0],"id":83,"left_children":[1,3,5,-1,-1,-1,-1],"loss_changes":[1.9553963E1,2.6505966E1,4.4524288E-1,0E0,0E0,0E0,0E0],"parents":[2147483647,0,0,1,1,2,2],"right_children":[2,4,6,-1,-1,-1,-1],"split_conditions":[1.5E-2,4.7E-2,1.7E-2,-2.6887996E-2,4.4286367E-2,-4.3880247E-4,-2.763685E-2],"split_indices":[451,82,301,0,0,0,0],"split_type":[0,0,0,0,0,0,0],"sum_hessian":[9.9759094E1,5.3509277E1,4.6249817E1,2.035001E1,3.3159267E1,1.5896709E0,4.4660145E1],"tree_param":{"num_deleted":"0","num_feature":"751","num_nodes":"7","size_leaf_vector":"1"}},{"base_weights":[9.357389E-3,5.031821E-1,-2.766626E-2,8.227192E-1,-2.638553E-2,1.8113385E-1,4.5640953E-2,-2.1442344E-2,3.526764E-2],"categories":[],"categories_nodes":[],"categories_segments":[],"categories_sizes":[],"default_left":[0,0,0,0,0,0,0,0,0],"id":84,"left_children":[1,3,-1,5,-1,7,-1,-1,-1],"loss_changes":[3.0057926E1,1.94088E1,0E0,2.399149E0,0E0,2.448244E0,0E0,0E0,0E0],"parents":[2147483647,0,0,1,1,3,3,5,5],"right_children":[2,4,-1,6,-1,8,-1,-1,-1],"split_conditions":[2.94E-1,2.72E-1,-2.766626E-2,1E-3,-2.638553E-2,1E-3,4.5640953E-2,-2.1442344E-2,3.526764E-2],"split_indices":[112,590,0,571,0,3,0,0,0],"split_type":[0,0,0,0,0,0,0,0,0],"sum_hessian":[1.0617196E2,5.6602173E1,4.9569786E1,4.336319E1,1.3238985E1,5.710447E0,3.765274E1,2.723415E0,2.987032E0],"tree_param":{"num_deleted":"0","num_feature":"751","num_nodes":"9","size_leaf_vector":"1"}},{"base_weights":[-9.84586E-3,-2.7570128E-2,6.6194063E-1,8.2794946E-1,-2.4135826E-2,2.3068514E-1,4.3894675E-2,2.7777016E-2,-1.6551549E-2],"categories":[],"categories_nodes":[],"categories_segments":[],"categories_sizes":[],"default_left":[0,0,0,0,0,0,0,0,0],"id":85,"left_children":[1,-1,3,5,-1,7,-1,-1,-1],"loss_changes":[3.783742E1,0E0,9.221834E0,1.0179577E0,0E0,1.0075537E0,0E0,0E0,0E0],"parents":[2147483647,0,0,2,2,3,3,5,5],"right_children":[2,-1,4,6,-1,8,-1,-1,-1],"split_conditions":[5.32E-1,-2.7570128E-2,1.47E-1,4.72E-1,-2.4135826E-2,2.66E-1,4.3894675E-2,2.7777016E-2,-1.6551549E-2],"split_indices":[531,0,150,134,0,8,0,0,0],"split_type":[0,0,0,0,0,0,0,0,0],"sum_hessian":[1.0199984E2,5.657303E1,4.542681E1,3.9914696E1,5.512116E0,3.5137494E0,3.6400948E1,2.2332163E0,1.2805332E0],"tree_param":{"num_deleted":"0","num_feature":"751","num_nodes":"9","size_leaf_vector":"1"}},{"base_weights":[-3.474687E-2,4.860991E-1,-2.753743E-2,-2.6247574E-2,4.3385576E-2],"categories":[],"categories_nodes":[],"categories_segments":[],"categories_sizes":[],"default_left":[0,0,0,0,0],"id":86,"left_children":[1,3,-1,-1,-1],"loss_changes":[2.6295498E1,1.925596E1,0E0,0E0,0E0],"parents":[2147483647,0,0,1,1],"right_children":[2,4,-1,-1,-1],"split_conditions":[5.6E-2,1.72E-1,-2.753743E-2,-2.6247574E-2,4.3385576E-2],"split_indices":[213,230,0,0,0],"split_type":[0,0,0,0,0],"sum_hessian":[9.584487E1,4.7727375E1,4.8117493E1,1.2975157E1,3.475222E1],"tree_param":{"num_deleted":"0","num_feature":"751","num_nodes":"5","size_leaf_vector":"1"}},{"base_weights":[1.3538812E-2,-2.749306E-2,5.046823E-1,7.792166E-1,-2.5995096E-2,1.09964E-1,4.3593224E-2,3.7722934E-2,-2.2066157E-2],"categories":[],"categories_nodes":[],"categories_segments":[],"categories_sizes":[],"default_left":[0,0,0,0,0,0,0,0,0],"id":87,"left_children":[1,-1,3,5,-1,7,-1,-1,-1],"loss_changes":[2.9572994E1,0E0,1.6461857E1,2.720438E0,0E0,2.701952E0,0E0,0E0,0E0],"parents":[2147483647,0,0,2,2,3,3,5,5],"right_children":[2,-1,4,6,-1,8,-1,-1,-1],"split_conditions":[1.99E-1,-2.749306E-2,7.13E-1,3.9E-2,-2.5995096E-2,8.61E-1,4.3593224E-2,3.7722934E-2,-2.2066157E-2],"split_indices":[1,0,394,40,0,31,0,0,0],"split_type":[0,0,0,0,0,0,0,0,0],"sum_hessian":[1.0487063E2,4.8786804E1,5.6083828E1,4.4420868E1,1.1662958E1,5.667553E0,3.8753315E1,2.4429855E0,3.2245674E0],"tree_param":{"num_deleted":"0","num_feature":"751","num_nodes":"9","size_leaf_vector":"1"}},{"base_weights":[-3.8451437E-2,3.69756E-1,-5.136078E-1,-2.6654324E-2,4.2848554E-2,-2.7486522E-2,-9.229615E-2,2.6469082E-2,-2.0818833E-2],"categories":[],"categories_nodes":[],"categories_segments":[],"categories_sizes":[],"default_left":[0,0,0,0,0,0,0,0,0],"id":88,"left_children":[1,3,5,-1,-1,-1,7,-1,-1],"loss_changes":[1.993578E1,2.4799908E1,6.715841E-1,0E0,0E0,0E0,1.2176669E0,0E0,0E0],"parents":[2147483647,0,0,1,1,2,2,6,6],"right_children":[2,4,6,-1,-1,-1,8,-1,-1],"split_conditions":[1.5E-2,4.7E-2,4.97E-1,-2.6654324E-2,4.2848554E-2,-2.7486522E-2,-1.007E0,2.6469082E-2,-2.0818833E-2],"split_indices":[731,82,748,0,0,0,17,0,0],"split_type":[0,0,0,0,0,0,0,0,0],"sum_hessian":[1.0080258E2,5.4340454E1,4.646213E1,1.9013323E1,3.532713E1,4.2512375E1,3.949753E0,1.1363759E0,2.8133774E0],"tree_param":{"num_deleted":"0","num_feature":"751","num_nodes":"9","size_leaf_vector":"1"}},{"base_weights":[4.4143964E-3,4.6382537E-1,-2.7488215E-2,8.001048E-1,-4.7924414E-1,5.7145666E-2,4.3063387E-2,-2.632078E-2,4.0279757E-3,2.6917923E-2,-1.9168658E-2],"categories":[],"categories_nodes":[],"categories_segments":[],"categories_sizes":[],"default_left":[0,0,0,0,0,0,0,0,0,0,0],"id":89,"left_children":[1,3,-1,5,7,9,-1,-1,-1,-1,-1],"loss_changes":[2.6759386E1,1.8606335E1,0E0,1.8925877E0,4.577639E-1,1.1224412E0,0E0,0E0,0E0,0E0,0E0],"parents":[2147483647,0,0,1,1,3,3,4,4,5,5],"right_children":[2,4,-1,6,8,10,-1,-1,-1,-1,-1],"split_conditions":[3.5E-1,2.55E-1,-2.7488215E-2,1E-3,5.1E-2,1E-3,4.3063387E-2,-2.632078E-2,4.0279757E-3,2.6917923E-2,-1.9168658E-2],"split_indices":[92,710,0,641,581,0,0,0,0,0,0],"split_type":[0,0,0,0,0,0,0,0,0,0,0],"sum_hessian":[1.0310382E2,5.6461006E1,4.6642815E1,4.1731865E1,1.4729141E1,3.321327E0,3.8410538E1,1.3639463E1,1.0896772E0,1.4811985E0,1.8401284E0],"tree_param":{"num_deleted":"0","num_feature":"751","num_nodes":"11","size_leaf_vector":"1"}},{"base_weights":[-2.9670732E-2,-5.2170795E-1,6.550113E-1,-2.7459422E-2,2.9059134E-2,7.9369533E-1,-3.5393664E-1,-1.6792988E-2,2.1786034E-2,4.271074E-2,-1.715752E-2,4.2394903E-3,-2.3308212E-2],"categories":[],"categories_nodes":[],"categories_segments":[],"categories_sizes":[],"default_left":[0,0,0,0,0,0,0,0,0,0,0,0,0],"id":90,"left_children":[1,3,5,-1,7,9,11,-1,-1,-1,-1,-1,-1],"loss_changes":[3.3333958E1,8.868332E-1,6.0728283E0,0E0,6.9307345E-1,2.8180847E0,3.198666E-1,0E0,0E0,0E0,0E0,0E0,0E0],"parents":[2147483647,0,0,1,1,2,2,4,4,5,5,6,6],"right_children":[2,4,6,-1,8,10,12,-1,-1,-1,-1,-1,-1],"split_conditions":[5.83E-1,1E0,4.05E-1,-2.7459422E-2,5.4E1,2.55E-1,2.38E-1,-1.6792988E-2,2.1786034E-2,4.271074E-2,-1.715752E-2,4.2394903E-3,-2.3308212E-2],"split_indices":[491,682,738,0,25,0,19,0,0,0,0,0,0],"split_type":[0,0,0,0,0,0,0,0,0,0,0,0,0],"sum_hessian":[9.693204E1,5.6539062E1,4.039298E1,5.3854843E1,2.6842186E0,3.5699306E1,4.693672E0,1.5064797E0,1.1777389E0,3.413097E1,1.568337E0,1.0058864E0,3.6877856E0],"tree_param":{"num_deleted":"0","num_feature":"751","num_nodes":"13","size_leaf_vector":"1"}},{"base_weights":[-2.9538028E-2,5.18349E-1,-5.0204015E-1,-2.5591373E-2,8.283869E-1,7.910786E-3,-5.313702E-1,1.3580011E-2,4.20894E-2,-2.102601E-1,-2.7377982E-2,-1.8641986E-2,6.299457E-3],"categories":[],"categories_nodes":[],"categories_segments":[],"categories_sizes":[],"default_left":[0,0,0,0,0,0,0,0,0,0,0,0,0],"id":91,"left_children":[1,3,5,-1,7,-1,9,-1,-1,11,-1,-1,-1],"loss_changes":[2.5118196E1,1.4782667E1,1.0923471E0,0E0,3.206253E-2,0E0,1.452198E-1,0E0,0E0,2.6712447E-1,0E0,0E0,0E0],"parents":[2147483647,0,0,1,1,2,2,4,4,6,6,9,9],"right_children":[2,4,6,-1,8,-1,10,-1,-1,12,-1,-1,-1],"split_conditions":[1.9E-2,1.71E-1,1.1E-2,-2.5591373E-2,1.2E-1,7.910786E-3,4E-2,1.3580011E-2,4.20894E-2,3E-2,-2.7377982E-2,-1.8641986E-2,6.299457E-3],"split_indices":[104,230,563,0,398,0,353,0,0,473,0,0,0],"split_type":[0,0,0,0,0,0,0,0,0,0,0,0,0],"sum_hessian":[9.502201E1,4.3956028E1,5.1065983E1,1.0017983E1,3.3938046E1,1.98508E0,4.9080902E1,1.2974802E0,3.2640564E1,3.0271032E0,4.60538E1,1.9671489E0,1.0599543E0],"tree_param":{"num_deleted":"0","num_feature":"751","num_nodes":"13","size_leaf_vector":"1"}},{"base_weights":[4.0431138E-2,-2.7315263E-2,4.9322084E-1,7.70136E-1,-2.5975926E-2,2.1564236E-1,4.2051762E-2,3.7245836E-2,-2.0802993E-2],"categories":[],"categories_nodes":[],"categories_segments":[],"categories_sizes":[],"default_left":[0,0,0,0,0,0,0,0,0],"id":92,"left_children":[1,-1,3,5,-1,7,-1,-1,-1],"loss_changes":[2.7455767E1,0E0,1.6745539E1,1.6338215E0,0E0,2.509663E0,0E0,0E0,0E0],"parents":[2147483647,0,0,2,2,3,3,5,5],"right_children":[2,-1,4,6,-1,8,-1,-1,-1],"split_conditions":[1.35E-1,-2.7315263E-2,7.13E-1,1E-3,-2.5975926E-2,8.72E-1,4.2051762E-2,3.7245836E-2,-2.0802993E-2],"split_indices":[11,0,394,320,0,1,0,0,0],"split_type":[0,0,0,0,0,0,0,0,0],"sum_hessian":[1.0133185E2,4.4047478E1,5.7284374E1,4.5172363E1,1.2112011E1,5.579256E0,3.9593105E1,2.9382281E0,2.6410277E0],"tree_param":{"num_deleted":"0","num_feature":"751","num_nodes":"9","size_leaf_vector":"1"}},{"base_weights":[-6.32135E-3,3.965618E-1,-5.2738225E-1,-2.645886E-2,4.17819E-2,2.5166082E-3,-2.7330441E-2],"categories":[],"categories_nodes":[],"categories_segments":[],"categories_sizes":[],"default_left":[0,0,0,0,0,0,0],"id":93,"left_children":[1,3,5,-1,-1,-1,-1],"loss_changes":[2.1122065E1,2.3510128E1,5.1477814E-1,0E0,0E0,0E0,0E0],"parents":[2147483647,0,0,1,1,2,2],"right_children":[2,4,6,-1,-1,-1,-1],"split_conditions":[1.5E-2,4.7E-2,1.7E-2,-2.645886E-2,4.17819E-2,2.5166082E-3,-2.7330441E-2],"split_indices":[451,82,301,0,0,0,0],"split_type":[0,0,0,0,0,0,0],"sum_hessian":[9.8620155E1,5.575187E1,4.2868286E1,1.7869976E1,3.788189E1,1.3286121E0,4.1539673E1],"tree_param":{"num_deleted":"0","num_feature":"751","num_nodes":"7","size_leaf_vector":"1"}},{"base_weights":[3.1235108E-2,4.8941463E-1,-2.7373165E-2,7.8359306E-1,-2.6031861E-2,1.6057488E-1,4.2452123E-2,-2.0063927E-2,3.163671E-2],"categories":[],"categories_nodes":[],"categories_segments":[],"categories_sizes":[],"default_left":[0,0,0,0,0,0,0,0,0],"id":94,"left_children":[1,3,-1,5,-1,7,-1,-1,-1],"loss_changes":[2.8292942E1,1.8093035E1,0E0,1.75947E0,0E0,1.7535805E0,0E0,0E0,0E0],"parents":[2147483647,0,0,1,1,3,3,5,5],"right_children":[2,4,-1,6,-1,8,-1,-1,-1],"split_conditions":[2.94E-1,2.72E-1,-2.7373165E-2,1E-3,-2.6031861E-2,1E-3,4.2452123E-2,-2.0063927E-2,3.163671E-2],"split_indices":[112,280,0,581,0,3,0,0,0],"split_type":[0,0,0,0,0,0,0,0,0],"sum_hessian":[1.0469581E2,5.851854E1,4.617727E1,4.54929E1,1.3025639E1,4.653097E0,4.08398E1,2.193284E0,2.4598129E0],"tree_param":{"num_deleted":"0","num_feature":"751","num_nodes":"9","size_leaf_vector":"1"}},{"base_weights":[-4.435265E-2,-5.1737607E-1,6.079372E-1,-2.7303604E-2,3.9536268E-2,7.691934E-1,-3.4648958E-1,2.2116639E-2,-1.6569734E-2,2.0121207E-2,4.1163366E-2,-2.3138413E-2,6.554421E-3,-1.6944258E-2,1.7847432E-2],"categories":[],"categories_nodes":[],"categories_segments":[],"categories_sizes":[],"default_left":[0,0,0,0,0,0,0,0,0,0,0,0,0,0,0],"id":95,"left_children":[1,3,5,-1,7,9,11,-1,-1,13,-1,-1,-1,-1,-1],"loss_changes":[2.948913E1,9.061279E-1,6.4544353E0,0E0,6.911394E-1,1.3891678E0,4.2165434E-1,0E0,0E0,5.274663E-1,0E0,0E0,0E0,0E0,0E0],"parents":[2147483647,0,0,1,1,2,2,4,4,5,5,6,6,9,9],"right_children":[2,4,6,-1,8,10,12,-1,-1,14,-1,-1,-1,-1,-1],"split_conditions":[5.83E-1,1E0,1.51E-1,-2.7303604E-2,6.93E-1,4.96E-1,-8.85E-1,2.2116639E-2,-1.6569734E-2,-1.008E0,4.1163366E-2,-2.3138413E-2,6.554421E-3,-1.6944258E-2,1.7847432E-2],"split_indices":[481,682,120,0,40,104,287,0,0,37,0,0,0,0,0],"split_type":[0,0,0,0,0,0,0,0,0,0,0,0,0,0,0],"sum_hessian":[9.355437E1,5.4348846E1,3.920552E1,5.1704155E1,2.6446948E0,3.3704945E1,5.5005755E0,1.1756042E0,1.4690906E0,2.3616529E0,3.1343292E1,4.448487E0,1.0520887E0,1.1402317E0,1.221421E0],"tree_param":{"num_deleted":"0","num_feature":"751","num_nodes":"15","size_leaf_vector":"1"}},{"base_weights":[-4.4177803E-3,4.891994E-1,-5.303744E-1,-2.5950486E-2,8.038121E-1,2.8947673E-3,-2.7254218E-2,4.073695E-2,1.3249578E-2],"categories":[],"categories_nodes":[],"categories_segments":[],"categories_sizes":[],"default_left":[0,0,0,0,0,0,0,0,0],"id":96,"left_children":[1,3,5,-1,7,-1,-1,-1,-1],"loss_changes":[2.6027134E1,1.6822453E1,4.51519E-1,0E0,1.8497467E-2,0E0,0E0,0E0,0E0],"parents":[2147483647,0,0,1,1,2,2,4,4],"right_children":[2,4,6,-1,8,-1,-1,-1,-1],"split_conditions":[4.1E-2,1.64E-1,4.1E-2,-2.5950486E-2,4.4E-2,2.8947673E-3,-2.7254218E-2,4.073695E-2,1.3249578E-2],"split_indices":[253,720,583,0,3,0,0,0,0],"split_type":[0,0,0,0,0,0,0,0,0],"sum_hessian":[9.825103E1,5.0719757E1,4.7531273E1,1.1908393E1,3.8811367E1,1.0879265E0,4.6443348E1,3.753804E1,1.273324E0],"tree_param":{"num_deleted":"0","num_feature":"751","num_nodes":"9","size_leaf_vector":"1"}},{"base_weights":[4.708327E-2,-2.716352E-2,5.234553E-1,7.621682E-1,-2.5381727E-2,2.89587E-1,4.058638E-2,3.372792E-2,-1.8317172E-2],"categories":[],"categories_nodes":[],"categories_segments":[],"categories_sizes":[],"default_left":[0,0,0,0,0,0,0,0,0],"id":97,"left_children":[1,-1,3,5,-1,7,-1,-1,-1],"loss_changes":[2.7259678E1,0E0,1.3578168E1,7.9353523E-1,0E0,1.692298E0,0E0,0E0,0E0],"parents":[2147483647,0,0,2,2,3,3,5,5],"right_children":[2,-1,4,6,-1,8,-1,-1,-1],"split_conditions":[1.99E-1,-2.716352E-2,6.52E-1,1E-3,-2.5381727E-2,6.81E-1,4.058638E-2,3.372792E-2,-1.8317172E-2],"split_indices":[11,0,104,320,0,1,0,0,0],"split_type":[0,0,0,0,0,0,0,0,0],"sum_hessian":[9.4919685E1,4.232596E1,5.259373E1,4.2918304E1,9.675425E0,4.72315E0,3.8195156E1,2.9584246E0,1.7647251E0],"tree_param":{"num_deleted":"0","num_feature":"751","num_nodes":"9","size_leaf_vector":"1"}},{"base_weights":[-2.0852061E-2,3.7319177E-1,-5.0410044E-1,-2.6258985E-2,4.0465318E-2,-2.7153144E-2,-9.5029965E-2,2.5867328E-2,-2.0642826E-2],"categories":[],"categories_nodes":[],"categories_segments":[],"categories_sizes":[],"default_left":[0,0,0,0,0,0,0,0,0],"id":98,"left_children":[1,3,5,-1,-1,-1,7,-1,-1],"loss_changes":[1.8273066E1,2.11469E1,6.3507557E-1,0E0,0E0,0E0,1.1787173E0,0E0,0E0],"parents":[2147483647,0,0,1,1,2,2,6,6],"right_children":[2,4,6,-1,-1,-1,8,-1,-1],"split_conditions":[1.6E-2,4.7E-2,5.25E-1,-2.6258985E-2,4.0465318E-2,-2.7153144E-2,5.86E-1,2.5867328E-2,-2.0642826E-2],"split_indices":[151,82,288,0,0,0,28,0,0],"split_type":[0,0,0,0,0,0,0,0,0],"sum_hessian":[9.3973434E1,5.188986E1,4.208358E1,1.689104E1,3.4998817E1,3.8124786E1,3.9587927E0,1.1381272E0,2.8206654E0],"tree_param":{"num_deleted":"0","num_feature":"751","num_nodes":"9","size_leaf_vector":"1"}},{"base_weights":[1.1958107E-2,4.5480666E-1,-2.7227387E-2,7.638881E-1,-4.6851283E-1,2.1502185E-1,4.155662E-2,5.1832264E-3,-2.5970269E-2,-1.9809825E-2,3.2411855E-2],"categories":[],"categories_nodes":[],"categories_segments":[],"categories_sizes":[],"default_left":[0,0,0,0,0,0,0,0,0,0,0],"id":99,"left_children":[1,3,-1,5,7,9,-1,-1,-1,-1,-1],"loss_changes":[2.5324219E1,1.6683697E1,0E0,1.4171906E0,4.8968077E-1,1.8636596E0,0E0,0E0,0E0,0E0,0E0],"parents":[2147483647,0,0,1,1,3,3,4,4,5,5],"right_children":[2,4,-1,6,8,10,-1,-1,-1,-1,-1],"split_conditions":[2.94E-1,2.52E-1,-2.7227387E-2,1E-3,2.54E-1,1E-3,4.155662E-2,5.1832264E-3,-2.5970269E-2,-1.9809825E-2,3.2411855E-2],"split_indices":[112,440,0,581,740,3,0,0,0,0,0],"split_type":[0,0,0,0,0,0,0,0,0,0,0],"sum_hessian":[1.00752E2,5.620706E1,4.4544933E1,4.223991E1,1.396715E1,5.06834E0,3.717157E1,1.0561442E0,1.2911006E1,2.1377146E0,2.930625E0],"tree_param":{"num_deleted":"0","num_feature":"751","num_nodes":"11","size_leaf_vector":"1"}},{"base_weights":[-5.3151604E-2,-2.717163E-2,6.002547E-1,7.768952E-1,-3.588279E-1,4.0249098E-2,8.27817E-3,6.666291E-3,-2.3409968E-2],"categories":[],"categories_nodes":[],"categories_segments":[],"categories_sizes":[],"default_left":[0,0,0,0,0,0,0,0,0],"id":100,"left_children":[1,-1,3,5,7,-1,-1,-1,-1],"loss_changes":[2.996278E1,0E0,7.0779495E0,4.5407867E-1,4.3523902E-1,0E0,0E0,0E0,0E0],"parents":[2147483647,0,0,2,2,3,3,4,4],"right_children":[2,-1,4,6,8,-1,-1,-1,-1],"split_conditions":[5.55E-1,-2.717163E-2,1.51E-1,4E-1,1.61E-1,4.0249098E-2,8.27817E-3,6.666291E-3,-2.3409968E-2],"split_indices":[351,0,120,468,10,0,0,0,0],"split_type":[0,0,0,0,0,0,0,0,0],"sum_hessian":[9.151236E1,5.2378586E1,3.913377E1,3.3207657E1,5.926112E0,3.1446144E1,1.7615141E0,1.0376848E0,4.8884277E0],"tree_param":{"num_deleted":"0","num_feature":"751","num_nodes":"9","size_leaf_vector":"1"}},{"base_weights":[-3.7949163E-2,4.5562348E-1,-5.263971E-1,-2.5529921E-2,7.749067E-1,3.3162106E-3,-2.710318E-2,1.2518495E-2,7.874924E-1,4.0026255E-2,1.298206E-2],"categories":[],"categories_nodes":[],"categories_segments":[],"categories_sizes":[],"default_left":[0,0,0,0,0,0,0,0,0,0,0],"id":101,"left_children":[1,3,5,-1,7,-1,-1,-1,9,-1,-1],"loss_changes":[2.1628166E1,1.4174164E1,4.543171E-1,0E0,2.7074814E-2,0E0,0E0,0E0,1.7141342E-2,0E0,0E0],"parents":[2147483647,0,0,1,1,2,2,4,4,8,8],"right_children":[2,4,6,-1,8,-1,-1,-1,10,-1,-1],"split_conditions":[3.5E-2,1.71E-1,3.4E-2,-2.5529921E-2,1.12E-1,3.3162106E-3,-2.710318E-2,1.2518495E-2,3.3E-2,4.0026255E-2,1.298206E-2],"split_indices":[253,270,583,0,608,0,0,0,3,0,0],"split_type":[0,0,0,0,0,0,0,0,0,0,0],"sum_hessian":[8.771712E1,4.3663105E1,4.405401E1,1.0695859E1,3.2967247E1,1.051161E0,4.300285E1,1.2620409E0,3.1705208E1,3.0437138E1,1.2680689E0],"tree_param":{"num_deleted":"0","num_feature":"751","num_nodes":"11","size_leaf_vector":"1"}},{"base_weights":[8.884077E-2,-2.698539E-2,5.3274584E-1,7.443539E-1,-2.5188947E-2,-1.9393318E-3,7.667822E-1,4.576973E-1,4.0089015E-2,3.915317E-2,-1.798821E-2],"categories":[],"categories_nodes":[],"categories_segments":[],"categories_sizes":[],"default_left":[0,0,0,0,0,0,0,0,0,0,0],"id":102,"left_children":[1,-1,3,5,-1,-1,7,9,-1,-1,-1],"loss_changes":[2.7420656E1,0E0,1.2986324E1,8.755264E-1,0E0,0E0,1.3993835E-1,2.1692219E0,0E0,0E0,0E0],"parents":[2147483647,0,0,2,2,3,3,6,6,7,7],"right_children":[2,-1,4,6,-1,-1,8,10,-1,-1,-1],"split_conditions":[1.99E-1,-2.698539E-2,7.52E-1,1.82E-1,-2.5188947E-2,-1.9393318E-3,1E-3,8.72E-1,4.0089015E-2,3.915317E-2,-1.798821E-2],"split_indices":[11,0,14,208,0,0,80,1,0,0,0],"split_type":[0,0,0,0,0,0,0,0,0,0,0],"sum_hessian":[9.624583E1,3.97483E1,5.6497528E1,4.715304E1,9.344488E0,1.2925107E0,4.586053E1,6.0965667E0,3.976396E1,4.3909574E0,1.7056094E0],"tree_param":{"num_deleted":"0","num_feature":"751","num_nodes":"11","size_leaf_vector":"1"}},{"base_weights":[-1.2019211E-2,3.6468473E-1,-5.2065086E-1,-2.6193703E-2,3.9487798E-2,1.9383741E-3,-2.703016E-2],"categories":[],"categories_nodes":[],"categories_segments":[],"categories_sizes":[],"default_left":[0,0,0,0,0,0,0],"id":103,"left_children":[1,3,5,-1,-1,-1,-1],"loss_changes":[1.8454617E1,2.1320747E1,4.7828007E-1,0E0,0E0,0E0,0E0],"parents":[2147483647,0,0,1,1,2,2],"right_children":[2,4,6,-1,-1,-1,-1],"split_conditions":[1.5E-2,1.18E-1,1.7E-2,-2.6193703E-2,3.9487798E-2,1.9383741E-3,-2.703016E-2],"split_indices":[431,22,301,0,0,0,0],"split_type":[0,0,0,0,0,0,0],"sum_hessian":[9.432571E1,5.4353386E1,3.997232E1,1.7512737E1,3.684065E1,1.3440933E0,